20 100
L 0.08044616 0.07165844 0.0451804 0.02306746 0.017448014 -0.06290748 0.088186085 0.10309603 -0.0401713 -0.052057106 0.022963341 -0.062153775 -0.027362293 0.005040377 -0.021716023 -0.00055181806 0.09892552 0.022180261 0.016871141 -0.20999835 -0.026220633 -0.03258668 0.08804846 -0.11351152 -0.060244642 -0.010868127 -0.08223565 -0.061505627 0.05937484 0.032288123 0.08525302 -0.03198886 0.0069686035 0.0795447 -0.085270554 0.0921192 -0.010902851 0.015637783 -0.02368798 -0.026558194 0.07977329 -0.025188914 0.022741515 0.00083955814 0.01391637 0.08428363 -0.004266844 -0.029998286 -0.021300301 -0.001661825 0.019789081 -0.046269625 0.040282328 0.086822644 -0.07532779 0.001388569 0.1135783 0.012451457 0.008648669 -0.051932838 0.014369511 -0.038767237 0.059589475 -0.046452824 -0.059873138 0.1290039 -0.026151918 0.017079864 -0.10965858 -0.03555513 -0.08949348 0.13585332 0.04380578 0.04250052 0.049052812 -0.019859144 -0.0038413208 0.0771283 0.044414133 -0.04770704 -0.054721825 0.009417422 -0.0025849266 0.006893005 0.049768206 -0.06459403 -0.00047040303 -0.08325085 0.07105416 0.035408843 0.02712301 0.05894732 -0.041427445 0.03512137 0.11134222 -0.019518 -0.007782975 -0.016609438 0.051027913 0.0057789763
S 0.08793135 -0.032865282 -0.009165362 0.011507752 0.103229314 -0.09582229 0.053706665 0.22702752 -0.119730406 -0.1873392 -0.04350387 -0.15438813 -0.13786952 0.0587284 -0.0017193778 0.039516106 0.04776553 0.065516315 0.049734198 -0.09702514 0.067030005 -0.03275387 0.030625526 -0.055856187 0.038464006 0.03487784 -0.1128338 0.08375069 0.0029667297 0.034430906 0.04559642 -0.019976582 0.010768562 -0.035633586 -0.1019542 -0.009997929 0.09946903 0.14948112 0.020926537 0.014177214 0.08975559 -0.06638439 -0.021768257 0.09862776 -0.033226438 0.049722854 0.06323211 0.020367566 0.015858874 0.10102612 0.0823248 -0.088939875 0.15788506 0.00059755053 -0.08840595 -0.020105973 0.1518476 0.07219814 0.00777503 0.038498446 -0.068796895 -0.06847569 0.08934843 0.023904743 -0.025358258 0.08458592 0.08814751 0.16095196 -0.062769055 0.025972031 0.028015759 0.021184843 0.09820755 0.0008481897 -0.049637344 -0.029067887 -0.022373242 0.0041970327 0.0069063413 -0.024054695 -0.050378706 -0.025036138 -0.13041405 -0.10253614 0.11588392 -0.06264773 -0.053414546 -0.042526282 0.11936975 -0.018244956 0.11570313 0.04123103 -0.074517354 0.032025386 0.2622164 0.065463684 0.03998591 -0.022706795 -0.00025130395 0.0868832
A 0.2602644 -0.06293149 0.064427786 0.071855426 -0.018969715 -0.00034788658 -0.001984225 0.034344606 0.020876613 -0.09142011 0.062264036 0.00676026 -0.040660962 0.047139525 -0.052912418 0.016742289 0.064749286 -0.007844915 -0.03025736 -0.19038445 -0.025679985 -0.06294617 0.089097515 -0.1215659 -0.11802295 -0.007925806 -0.05193284 -0.010186209 0.038637575 0.06661767 0.033589862 -0.038795337 0.03420136 0.12591508 -0.10559969 0.007072403 0.05814084 0.1071755 0.04686513 0.07292065 0.034781925 0.035974283 0.029102182 -0.007598371 -0.07743332 0.08819474 0.11219257 0.030763887 -0.10573558 0.07674653 0.08352362 0.017612146 0.16107604 0.06777664 -0.039867297 -0.008562413 0.20882279 0.15416752 0.03451159 -0.022725532 -0.050872162 -0.053768925 -0.15594223 -0.08074488 -0.055577863 0.155497 -0.05970743 -0.019233035 -0.09396175 -0.048294414 -0.14274915 0.13086288 0.0526943 0.03096925 -0.0068831732 -0.035251137 0.0061542764 0.038796563 0.036948632 -0.008249923 -0.099405296 0.10326471 0.022608947 -0.04397994 0.1221226 -0.025306925 -0.034351822 -0.13410677 0.13956122 0.118212 0.050702836 0.053712778 -0.10363782 0.11231353 0.09801791 -0.10524096 0.042270713 -0.10419792 0.019670127 0.050203845
E -0.14630334 0.03465161 0.12828282 0.010953209 0.07439989 -0.04023098 0.08633087 0.15581279 0.013497142 -0.091309085 0.09462949 -0.0842082 0.04389976 -0.04468897 0.0356596 -0.009396767 0.11117086 -0.016785122 -0.10091745 -0.23541647 0.029639298 0.019996159 0.17850201 -0.040737312 -0.0118770655 0.07745438 -0.07220563 0.05420355 -0.069634005 0.06189059 0.02315057 -0.0463002 -0.02460742 0.029905561 -0.13473903 0.15974344 -0.041658822 0.0037249648 -0.075029306 -0.10172399 0.016757047 -0.013348893 0.03997297 -0.057220925 0.03798891 0.10176648 -0.004615375 0.02350648 -0.011175156 0.053332143 0.032343708 0.020829733 0.0426975 0.10544974 -0.043501634 -0.04698114 0.053802297 0.1044067 0.018993966 -0.06321079 0.061109655 0.09474562 -0.10131458 -0.0939572 -0.111243404 0.19176164 0.008274138 0.05824365 -0.1767622 -0.052813284 -0.037003584 0.16053188 0.07819645 0.021335378 -0.005043054 -0.029506646 0.005685629 0.01670152 0.04114128 -0.046460852 -0.02595468 0.042083185 -0.068609506 -0.047664538 0.067876935 -0.057312995 -0.052541584 -0.067114025 0.055918813 0.031294603 -0.046639204 -0.033942405 -0.0376824 0.015402419 0.08803327 -0.022387713 -0.07985648 -0.027012093 0.058384325 -0.088403165
V 0.052793916 -0.012464103 0.053465348 0.023132943 -0.029984375 0.006375435 0.024857972 0.010868479 -0.056442656 -0.055121344 0.047077622 0.0072331 0.029158823 -0.0005845999 0.026348192 -0.015539894 0.057406317 -0.0073458604 -0.07503263 -0.14892422 -0.0029835182 -0.0072967014 0.12884144 -0.020498704 -0.0623219 0.023682734 0.0072618774 -0.028332943 -0.02928192 0.03855567 0.04312246 -0.023555748 0.05526491 0.035923854 -0.032752562 0.057011027 0.01031634 0.04174277 -0.020832818 -0.00837287 0.102183975 -0.051569827 -0.034906063 0.081765875 -0.014598423 0.008772054 -0.00933804 -0.052822202 -0.06212785 0.059368584 0.02071985 -0.095320195 0.041809887 0.016693104 -0.0881748 -0.028793953 0.09521596 0.0058679283 0.0048416485 -0.028169053 -0.07135315 -0.12294425 0.02800753 -0.023029938 -0.0706692 0.17698972 -0.040222708 0.06384239 -0.10560403 -0.05769094 -0.050803334 0.19081283 0.04102458 0.051251248 0.051123865 0.036369123 0.019277947 0.04319906 0.04674455 -0.03061599 -0.06507495 0.043427214 0.03551395 0.0047389157 0.029644163 -0.041995864 -0.018747833 -0.05648508 0.10537787 0.053387545 0.13289292 0.077530436 -0.050714627 0.06607397 0.112916574 -0.04870854 0.062202483 -0.07688403 0.04440123 0.07771216
G 0.16024297 -0.12807 0.05957889 0.05294392 -0.076431714 0.08623816 -0.05202732 -0.04502309 0.014706325 -0.13955143 0.065445326 0.0462587 -0.040074885 0.09431041 -0.02211717 0.021427605 0.12221196 0.031762615 -0.079299904 -0.145201 0.014787876 -0.0017357474 0.1461854 -0.01796633 -0.043386728 0.049662612 -0.055521656 0.04822085 0.01943523 0.03623232 -0.006551931 0.015040185 0.0020586792 0.00013589399 -0.05699371 -0.025297392 0.07771633 0.028633678 -0.0028886567 0.13627197 0.106786765 0.04169946 -0.01923808 0.028532114 0.012905477 0.031883407 0.09584252 -0.045898665 -0.06349232 -0.0060564023 0.077497005 -0.07432752 0.081900656 -0.074955136 -0.116549306 0.01293852 0.16943663 0.15612476 0.0799896 0.047663435 -0.06343961 -0.094855055 0.06786857 0.0051013837 -0.046583295 0.18201952 -0.00782835 -0.060601257 -0.14771815 -0.06509045 -0.12556149 0.1724051 0.04232495 0.00050691294 0.019518252 0.050112493 -0.026882019 0.04447 0.027044203 0.0511092 -0.055861913 -0.03427928 -0.030533915 -0.016885448 0.06565314 -0.11443312 -0.053024933 -0.080789976 0.13312528 0.013974673 0.15739788 0.16596155 -0.11642235 0.049974546 0.21289606 -0.0019786886 0.012747363 -0.045866836 -0.056936026 0.083304025
P 0.27799052 -0.16463602 0.12322646 0.10777733 0.039525434 -0.041550845 0.006637754 0.2626619 -0.043246422 -0.34950355 0.06838292 -0.083659925 -0.17095482 0.15294425 -0.042879406 0.06689922 0.12686089 0.045588378 -0.047675926 -0.24883954 0.07837494 -0.07002606 0.17439708 -0.072734624 -0.050756656 0.098060556 -0.16207477 0.20081462 -0.017762564 0.12702306 -0.004040547 -0.0029857315 0.00902769 0.05215577 -0.061732866 -0.10810642 0.072220564 0.088001736 0.08898046 0.12003115 0.050407067 0.0336377 -0.010017136 0.028323725 -0.05293255 0.0428684 0.1430788 0.020256497 -0.025481962 0.04560238 0.09826033 -0.030165333 0.11506347 -0.01668002 -0.05271061 0.0064590145 0.14511934 0.11550673 0.02688131 0.047991127 -0.043319613 -0.029578278 0.045638647 0.010234468 -0.028196864 0.09615191 0.11622877 -0.06635516 -0.08180547 0.0044024545 -0.024686683 0.088365205 -0.012928908 -0.09573403 -0.019063335 0.056848105 -0.06854572 -0.0028072356 0.02319017 0.08911253 0.054841504 -0.07483496 -0.12090735 -0.067520775 0.05025486 -0.08126934 -0.13694483 0.00047557746 0.06361422 -0.037079863 0.09785213 0.080399856 -0.10948914 0.0033743537 0.11973863 0.03048217 0.014019708 -0.052268352 -0.06357733 0.054444548
R 0.08037702 0.051020745 0.03562094 -0.009124464 0.010219531 -0.0033294153 0.04707356 0.022875797 0.014651241 -0.15232374 0.072021745 -0.1497682 -0.06363307 -0.0154289035 -0.032956697 -0.008656944 0.23473848 0.06733065 -0.027785009 -0.2882633 -0.03905079 0.018064838 0.16869727 -0.15139796 -0.13676977 0.096073486 -0.16428503 -0.041090023 0.090990275 0.095310986 0.07323205 -0.10453705 -0.023875892 -0.034869842 -0.09564396 0.114271164 0.07151513 -0.019183155 -0.10290452 0.032451965 0.038311288 0.03047185 -0.017135933 -0.014034068 0.03875574 0.041770086 0.03961918 -0.0016704705 -0.024110503 0.0059357006 0.013560367 -0.0240089 0.050852526 0.002925978 -0.07354982 0.030661363 0.07271637 0.12102 0.05303952 0.02082679 0.028853115 0.017304314 -0.024748713 -0.05071072 -0.01590178 0.09176854 -0.034778874 -0.011774422 -0.081278645 -0.037295856 -0.05458528 0.03200262 0.091259085 0.04421978 -0.049854636 -0.03918384 0.011094015 -0.0120423855 -0.035777804 0.01479552 -0.06285956 0.04755321 -0.045924168 -0.043792736 0.033992916 -0.063962206 0.015653064 -0.056557063 0.01693424 -0.0071754237 -0.020381957 -0.021188872 -0.085696176 0.023048598 0.022662964 -0.02442427 -0.0124807125 0.01961048 -0.024287673 0.004631688
K -0.0031640853 -0.032249097 0.1410033 -0.0020320388 -0.016510999 0.0048006787 -0.006093413 0.037797317 0.05785928 -0.08725683 0.117941275 -0.043316673 0.048255224 -0.05985532 0.013919872 -0.006629023 0.12126434 0.001601116 -0.102451675 -0.26859656 0.008743076 0.0021640873 0.21364824 -0.074819684 -0.12642197 0.09602921 -0.024234746 -0.0007610081 -0.047774874 0.11268153 0.01414782 -0.10508407 -0.0037355977 -0.06709645 -0.07127899 0.103997245 -0.00820295 0.010131304 -0.074663356 -0.10364311 0.037417658 -0.06602381 -0.022469144 0.03809622 0.04367355 0.014639705 -0.0570836 -0.018154234 0.010485897 0.08287826 -0.00054204534 -0.047437895 0.008239915 0.009341637 -0.05617918 -0.062200587 -0.052498177 -0.0019890314 -0.010025964 -0.029068042 0.050704665 0.07312814 -0.066505544 -0.029842345 -0.100377925 0.17413576 -0.015977118 0.10830707 -0.12782326 -0.04137173 0.020309448 0.12730965 0.07555208 0.07138513 0.0047847275 -0.027628805 0.0538885 0.0011794812 0.0028266676 -0.058098365 -0.056499094 0.054979574 -0.031730216 -0.030252822 0.04114857 -0.034772027 0.02401322 -0.050283685 0.03640741 0.041649222 -0.03326097 -0.04954274 -0.0053051882 0.034881864 0.037026256 -0.02429786 0.004424126 -0.05507529 0.05179493 -0.033408523
T 0.0773832 -0.039731555 0.063026376 -0.008116825 0.016604625 -0.006891067 0.009435261 0.08736653 -0.051066943 -0.13162301 0.03582729 -0.036377925 -0.021682745 0.00040491374 0.014476629 -0.003371195 0.046070337 0.014912492 -0.05230956 -0.15647238 0.02249966 -0.038385954 0.13217458 -0.023743404 -0.049697384 0.040927134 -0.00439766 0.050620813 -0.042180534 0.073194936 0.0049530324 -0.025250074 0.025901154 -0.022362025 -0.007600358 -0.03414766 0.017552033 0.052048646 0.023211857 -0.0030790821 0.042242363 -0.045423776 -0.036345083 0.07193193 -0.022285383 -0.017214527 0.00980474 -0.009828522 -0.0019156244 0.06600854 0.027551616 -0.05815181 0.030802935 -0.024627082 -0.035590544 -0.03614729 0.013942304 -0.009467598 -0.010444858 0.016564026 -0.045104492 -0.036189713 0.039434575 0.021582803 -0.083601646 0.17589498 0.02141522 0.109785676 -0.12660651 -0.043100677 0.028742842 0.14829946 0.08366099 0.07823434 0.0040349537 0.049853355 0.045494247 0.012106563 0.011677436 -0.025394807 -0.05715508 0.0029670035 -0.019644743 -0.030169751 0.020175438 -0.0656129 0.000956066 -0.018532462 0.100202106 0.0073932055 0.11286882 0.069626324 -0.035699528 0.0129723735 0.18808606 0.04074106 0.10017314 -0.07692803 0.028849745 0.05086271
I -0.021212881 0.011135277 0.085707396 -0.04490955 -0.0019574487 -0.035161037 0.042857267 0.10104708 -0.07834245 -0.052216012 0.022251576 -0.040490348 0.030842658 -0.03132534 0.030844644 -0.022917284 0.055250023 0.03980506 -0.0384938 -0.17490534 -0.0047136163 -0.020445636 0.14675497 -0.03601057 -0.0717867 0.048603516 -0.0012007712 -0.055287506 -0.004398453 0.054622468 0.06442922 -0.065427564 0.0071591595 -0.023459973 -0.046278257 0.14671871 -0.01742133 0.0039146203 -0.07625075 -0.08713304 0.101644844 -0.094979465 -0.035398077 0.06154424 0.057100553 0.014662599 -0.0945864 -0.051471975 -0.005951892 -0.0065256027 -0.014956314 -0.080295354 -0.008775288 0.031284887 -0.10047751 -0.028023593 0.008221339 -0.083260156 -0.02558247 -0.05664554 0.041477725 -0.037255906 0.09413098 -0.014814596 -0.05463034 0.1317458 -0.031987336 0.16762911 -0.09894391 -0.056245524 0.02443838 0.124925576 0.04457479 0.10288667 0.055100705 0.036366664 0.038350254 0.059186727 0.01228134 -0.06066739 -0.038947407 -0.0445999 0.020201696 0.010293958 0.01954691 -0.04479928 0.05423948 -0.020487668 0.040262986 0.015352407 0.038286217 0.05048444 0.007884203 0.019617302 0.08705866 0.030842304 0.07919933 -0.060782265 0.07682552 -0.018519787
D -0.08861043 0.04218287 0.012729474 0.037074912 0.12025496 -0.050126415 0.11667507 0.17369516 -0.09639813 -0.07641104 0.004717295 -0.06613516 -0.0043543237 0.012949928 0.03783374 -0.0067841453 0.05539501 -0.02147255 -0.04231737 -0.17690265 0.04214682 -0.015286104 0.09911418 -0.016630435 0.065134756 -0.007831084 -0.06761245 0.052729696 -0.062673 0.011631583 0.061358582 0.033740688 -0.04053589 -0.057085548 -0.10288946 0.10334108 -0.01193083 -0.013336813 -0.08649409 -0.0450509 0.099172294 -0.02363682 0.0008696614 -0.0039382204 0.0977562 0.051270783 -0.0075642443 -0.055050153 -0.006214737 -0.011348771 0.041380942 -0.07116973 0.01382769 -0.024449948 -0.13089906 -0.034449674 -0.0003580869 0.011713551 -0.0050047417 -0.03692847 0.062069472 -0.00619645 0.12990116 0.0043399218 -0.092841916 0.15532292 -0.013072557 -0.01326528 -0.16927426 -0.04868335 -0.06248653 0.14569858 0.06860811 0.066153176 -0.018300975 -0.03867814 0.040258326 0.029928124 -0.0039172256 -0.030046327 -0.031938944 -0.0069219293 -0.06147136 -0.01087739 0.026705319 -0.09403828 0.02508292 -0.07783662 0.059855755 -0.009206497 -0.021671087 0.041034024 -0.052024554 -0.022993494 0.18787569 0.056508824 -0.021038942 -0.051662467 0.10152776 -0.046210665
Q 0.05465524 0.15476698 0.12336803 -0.060632937 0.03302816 -0.096330255 0.10668622 0.15546253 0.029097829 -0.09083605 0.067854874 -0.14265311 -0.022880169 -0.07599225 -0.043173403 -0.023190806 0.1454356 0.06056571 0.032177053 -0.29460523 -0.060337786 -0.05103185 0.14498532 -0.16464873 -0.12938146 0.043668017 -0.09046813 -0.05539973 0.085364684 0.09971877 0.060813896 -0.09610564 0.0100975 0.12939294 -0.010626197 0.02130929 -0.06286315 -0.016825724 0.04659154 -0.060915735 -0.06775283 -0.00955663 0.039019763 -0.0477935 -0.05813807 0.057551008 -0.019487867 0.057418704 0.035750948 0.012970083 -0.031101651 0.06606379 -0.029469475 0.16249697 0.086560346 0.0092591075 0.021131985 -0.014485411 -0.00473098 -0.028974758 0.022463249 0.0998886 -0.0714769 -0.069727175 -0.08839978 0.18060808 0.036804236 0.08076462 -0.15592185 -0.051198218 -0.00017257706 0.13813601 0.10552952 0.0651742 0.020038564 0.052334115 0.009356953 0.028540248 0.040651187 -0.042329695 -0.036102153 0.031095373 -0.009564585 -0.038544655 -0.004946055 -0.055916507 -0.036274582 0.010532697 0.035140295 0.005832761 -0.01634199 -0.013262793 -0.013967882 -0.027212296 0.040322717 0.009120175 0.030552177 0.03401373 -0.00045578493 -0.047452077
F 0.04685404 0.06431634 -0.018691726 -0.006361158 0.013293421 -0.023816125 0.07124194 0.031174561 -0.100479715 -0.053427182 -0.0054713497 -0.06455102 -0.01941474 -0.00073179835 0.010032263 -0.020260666 0.10416615 0.038199775 -0.0011960368 -0.18316005 -0.0207114 -0.010876957 0.10139198 -0.068631835 -0.042546324 -4.7142385e-05 -0.05559604 -0.077293046 0.040990442 0.02021485 0.09978527 -0.023860564 -0.0029490557 -0.048021253 -0.0447868 0.06676847 0.0008356637 0.0019231426 -0.05836693 -0.042199768 0.13809597 -0.0793953 -0.008995534 0.072306566 0.07098984 0.026459733 -0.074705094 -0.09860677 0.016802443 -0.021971932 -0.0011800956 -0.12807344 -0.009699933 -0.025860593 -0.11978741 -0.0130121475 0.038999293 -0.066737294 0.00063653756 -0.024248589 -0.0057990896 -0.09559844 0.20266445 0.036565766 -0.03244082 0.107670516 -0.03170178 0.061381713 -0.07791195 -0.029249886 -0.031474363 0.07901585 0.06025188 0.095671594 0.06000046 -0.007665526 0.04308239 0.0711744 -0.008097302 -0.038946845 -0.06907367 -0.05312366 -0.0036898514 0.03388245 0.008347565 -0.089352556 0.0972168 -0.043281697 0.024305006 -0.030229574 0.0749998 0.07720616 -0.0023792458 0.018795893 0.12556133 0.03466012 0.049646612 -0.018791359 0.03861366 0.050053447
N 0.053573854 0.047938097 -0.012978865 -0.009157392 0.028790751 -0.025366226 0.04849973 0.027845122 -0.077756435 -0.055077467 0.0073239296 -0.054929886 -0.010787139 -0.02130539 0.011387056 -0.012940283 0.062038343 0.01660225 0.0010358774 -0.19844688 0.0030667132 -0.038700745 0.10478517 -0.07287773 -0.028596938 -0.022038 -0.02260235 -0.039911903 -0.00017032672 0.029574266 0.072620414 -0.018062584 -0.011001897 -0.08300456 -0.017087799 -0.023584116 -0.01835357 0.014511785 -0.008503553 -0.07846816 0.065229416 -0.08715392 0.0049513895 0.067547254 0.045158427 0.006662954 -0.08110174 -0.06454998 0.06970503 0.034511667 -0.011071509 -0.09013464 -0.031485345 -0.041925523 -0.04245246 -0.046103973 -0.057795417 -0.08138629 -0.014805984 0.00085963396 0.0015716228 0.006737991 0.11321859 0.058331903 -0.100075506 0.19823419 -0.009554916 0.1367575 -0.15177205 -0.041305095 0.020138998 0.1253175 0.12224188 0.1441678 0.03012026 -0.006392577 0.08539955 0.048361592 -0.01736002 -0.07045209 -0.0936026 -0.021963757 -0.021115756 -0.001914629 0.013991006 -0.08896488 0.10691177 -0.03379875 0.05219473 -0.015686274 0.04940827 0.045635067 0.015566616 0.00084101397 0.17430489 0.067740105 0.08523539 -0.02375243 0.044715382 0.047134094
Y 0.06318031 0.034587223 0.009366034 -0.010823525 0.0384213 0.01867224 0.070531584 0.04531107 -0.08552918 -0.072804675 0.016676793 -0.034417786 0.012527108 -0.012047529 0.018035043 -0.050853908 0.10418943 0.015336741 -0.06723266 -0.1881587 -0.04034882 -0.016383661 0.14122447 -0.02580019 -0.072945245 0.02408089 -0.015232272 -0.043363027 -0.011984956 0.05989685 0.07434597 -0.017208707 -0.023581276 -0.05473872 -0.05371869 0.06419574 -0.01650527 -0.0037516213 -0.055743467 -0.029034592 0.12897572 -0.05383389 0.008885513 0.032237127 0.09335413 0.02843436 -0.0705435 -0.10014212 -0.01824893 -0.048679084 0.020333508 -0.08595177 -0.007353612 -0.05784503 -0.12329037 -0.03332742 0.013086156 -0.051130075 -0.001981888 -0.04506036 0.026783595 -0.07535886 0.15337764 0.033768717 -0.03523719 0.1156238 -0.060958415 0.017403074 -0.083603114 -0.05283629 -0.043433372 0.075931475 0.049852986 0.12571803 0.054437336 -0.0040111765 0.08690139 0.06284663 -0.03209779 -0.01634464 -0.07533872 -0.05251413 0.021824507 0.04713267 0.009096907 -0.09208905 0.14296295 -0.055543527 0.01344522 -0.016520178 0.04651223 0.08250702 0.0075744917 0.0262544 0.10212827 0.021544192 0.07566103 -0.08950626 0.053601015 2.5305995e-05
H 0.08618146 0.16972108 -0.037386622 -0.031138426 0.101320356 -0.0022187694 0.1590618 0.07468864 -0.13027178 -0.19204688 0.028712358 -0.16106132 -0.052008692 -0.061778933 0.024244815 -0.076861076 0.21045072 -0.0040953495 -0.09695776 -0.26696566 -0.082244955 0.0093831085 0.1692996 -0.077316105 -0.13200763 0.052589048 -0.098483995 -0.018322526 -0.0021891952 0.117289126 0.08243109 -0.046726916 0.01612775 0.036888193 -0.026394468 -0.016623808 0.012498421 0.027346164 0.0062163114 0.02566596 -0.0011991123 0.032349546 0.03167757 -0.015090089 -0.03285304 0.027996045 0.055818938 0.006532292 -0.013184335 0.029855728 0.031621285 -0.0023997629 0.048727814 0.02824849 0.013484435 0.01205844 0.07870324 0.039765343 0.010336075 0.00055337744 -0.075541325 -0.084915645 0.049509026 -0.003800314 0.0160697 -0.008589742 0.0013973936 -0.054430883 0.030373992 0.029295329 -0.02147351 -0.03262648 0.08253902 0.062480606 0.018911988 -0.041909024 0.052070364 0.03273267 -0.0050319666 -0.01328265 -0.10412345 0.015538649 -0.0376886 0.03001192 0.009058544 -0.11271373 0.08124448 -0.0687251 0.040960558 -0.059048112 0.14802484 0.070074864 -0.033109948 0.03868323 0.19167264 -0.012776099 0.019219633 -0.03808364 -0.003954705 0.0736005
M 0.115107335 -0.04302917 0.041668937 -0.009203883 0.041560493 0.018872589 0.018342119 0.06635345 -0.03413591 -0.062354743 0.022400917 -0.0055867424 0.012638785 0.0055903494 -0.0073438743 -0.03657706 0.028508108 0.022504067 -0.048600655 -0.123826854 -0.02785952 -0.052533228 0.10114087 -0.020576963 -0.071381286 0.024915595 0.016166082 6.551824e-05 -0.02204093 0.06545714 0.036165386 -0.023856327 -0.018492157 -0.004521474 -0.0754201 0.056020744 -0.008747515 0.0372613 -0.019806057 -0.0060295556 0.095907554 -0.034875948 0.02558605 0.0070149684 0.042562008 0.050493155 -0.036866035 -0.052431714 -0.07029874 -0.027925625 0.043573115 -0.015696013 0.04291343 -0.030451722 -0.09140155 -0.047289852 0.07023662 0.028132139 0.011821541 -0.050700083 0.009935839 -0.0548767 -0.0018357122 -0.010759988 -0.07131675 0.22008654 -0.095246136 0.080060676 -0.15466581 -0.11356823 -0.054208584 0.12898204 0.08883938 0.17647886 0.014074273 0.03104506 0.119828805 0.038578317 -0.04560858 -0.003522458 -0.09502942 -0.008158157 0.07180326 0.0020118447 0.036944415 -0.055900596 0.14098741 -0.0473799 0.042794622 0.041819457 0.008935495 0.06230393 -0.0051639355 0.039729953 0.05908187 0.0018877789 0.15903221 -0.14342135 0.05763968 -0.04156072
C 0.116083235 0.012935292 -0.06879628 0.11417019 0.07084788 0.016496856 0.068845056 -0.004693529 -0.037836306 -0.1808812 0.05598477 -0.12967962 -0.0801036 0.060463455 0.0011781998 -0.0018491053 0.22739322 0.016687527 -0.079348326 -0.210223 0.016230231 0.060175702 0.12631252 -0.04803424 -0.0024021862 0.08143481 -0.16841505 0.06264452 -0.04042919 0.052717652 0.08960094 0.00054338016 -0.016206728 -0.038377892 -0.1421555 -0.09836238 -0.03439072 0.13007982 0.055333473 -0.08362693 0.21972519 -0.1296787 0.15782449 0.08834417 0.053077083 0.17161778 -0.086774275 -0.1627713 0.0635283 0.07703701 0.0884859 -0.16635872 0.08222853 -0.044075876 -0.112010635 -0.10029486 0.23074235 0.09799515 0.08389883 -0.02683212 -0.15937853 -0.14644597 0.17690045 0.07830784 -0.017508855 0.15372977 0.060037185 -0.014171602 -0.03333793 0.038436137 -0.05234971 -0.039731678 0.06738634 -0.0031675831 0.13793892 -0.07967285 0.049207877 0.0787544 -0.019731952 0.030274626 -0.081163436 -0.12491917 -0.11656132 0.034183655 0.07258777 -0.1445288 0.14109778 -0.020166896 -0.09151297 -0.12956257 0.15431954 0.016459567 0.07928244 0.092314325 0.01639863 -0.05075347 -0.068800345 0.014258555 -0.13301548 0.13142471
W -0.0075825974 0.08370376 -0.018562213 -0.024893936 0.045579363 -0.017279055 0.06267553 0.03827129 -0.00040123385 -0.10732894 0.019688612 -0.15657525 -0.062004842 -0.01330137 -0.01576006 -0.020366093 0.18161726 0.08566461 0.012065842 -0.13064726 -0.020928985 0.041146886 0.079299554 -0.05505809 -0.034948926 0.10006736 -0.13116339 0.008369063 0.049774896 0.054759566 0.052156117 -0.04714387 0.009060286 -0.03201889 -0.05205631 0.06279158 0.034291785 -0.014117018 -0.071288235 0.030436024 0.116560906 -0.024953265 -0.030029042 0.060705032 0.026485197 0.01694564 -0.0025803624 -0.06686833 -0.036745872 0.00016277723 0.015558616 -0.09990663 0.009918004 -0.037707385 -0.10673321 0.0012224916 0.11158769 0.08647817 0.061907377 0.027854621 -0.08551784 -0.119577885 0.11202795 -0.0023903241 -0.064355224 0.23036584 -0.011392904 0.030096436 -0.17176563 -0.08756451 -0.03145628 0.14685224 0.12827781 0.079717845 -0.017549781 0.059821106 0.04754952 -0.020967294 -0.029397883 0.037537087 -0.062736206 0.026579626 -0.009509505 -0.029982097 -0.03817222 -0.09191025 0.016412275 0.020742174 0.027415637 -0.051499873 0.096533954 0.028481754 -0.061952714 -0.01705763 0.062899485 0.01474999 0.06419185 0.01709572 -0.037862785 0.040670697
