962 100
AVV -0.40294975 0.47897404 0.34253162 0.2857801 0.31290883 -0.187543 0.8756291 -0.6238226 -0.1655569 0.08421054 0.23370174 -0.5757015 0.45314658 -0.06356728 0.6089847 -0.32666957 0.5716959 -0.056361604 0.16727336 -0.28206837 -0.026862022 -0.0616755 -0.14034247 -1.083412 -0.100091085 0.6935361 1.1767712 0.64848703 0.87019867 -0.36844715 -0.35164815 0.16610926 -0.15004924 0.24775578 -0.41686547 -0.37431225 -0.21712527 -0.5651153 -0.22547607 -0.11560133 -0.9294658 0.23268706 0.030323118 0.07597411 -0.11195334 -0.119149245 -0.3385253 0.13612762 0.010109513 0.25571105 -0.1770652 -0.17783563 -0.24112998 -0.08072754 -0.21520382 0.65978944 -0.62593126 -0.024534581 0.22103986 -0.4169326 -0.21169308 -0.32219926 -0.95997286 -0.34723344 0.59380054 0.3720559 0.03781016 1.3101902 -0.25238103 0.11179668 -0.01660079 -0.5426082 -0.45809063 0.21481633 -0.14471078 -0.16109502 -0.21829997 -0.37885186 -0.40009898 0.34110275 -1.109227 -0.7552285 -0.58836555 0.33147487 -0.25440267 -0.7347918 -0.3544872 -0.41285118 0.08549493 -0.42467242 -0.15562072 0.2761717 -0.41920915 -0.50610465 0.8265763 0.4506421 0.99031436 0.23787208 0.09351645 -0.09959073
TLR -0.97570354 0.50491744 -0.91276425 0.41748667 -0.3962964 0.18669105 -0.01968462 0.740474 -0.48969802 -0.18348801 -0.11034625 0.58215225 0.34832078 -0.3501723 -0.61032295 0.3431496 0.1905678 -0.42346233 -0.52370626 -0.053758036 -0.38448378 -0.23319829 -0.33923855 -0.24939896 -0.61169696 0.14964655 -0.010833081 -0.16619584 -0.20800245 -0.72551835 -1.0573062 0.21927392 -0.015617312 -0.10556802 -0.45273268 -0.5371079 0.45293814 0.6573643 0.043833185 -0.030361779 -0.803533 -0.2649871 0.7763107 0.78294474 0.6349338 0.00049864966 0.45403272 0.6090498 0.66372496 -0.110703364 0.03463271 -0.1178414 -0.46142927 -0.95128626 -0.7624942 1.1305026 0.20589146 -0.3704979 -1.0201887 1.3820709 0.18230502 -0.0065110745 -0.18783632 0.40223217 0.452454 0.6712624 0.2856646 0.5117097 0.16205627 -0.39747718 0.056851488 -0.85800475 -0.008517054 -0.3158068 -0.10317765 -0.13750525 0.11870121 -0.28526488 0.2824597 -0.67219406 0.71073484 0.5404677 -0.34309885 0.57909626 -0.48972037 -0.03046213 -0.11114813 0.8405282 0.13788992 -0.26860017 0.7774677 -0.2297917 -0.30936575 -0.068844266 -0.0648946 -0.2580699 0.020740092 0.154667 -0.71293354 0.51558244
LLL 0.36724043 0.32779175 -0.1621089 -0.07940187 -0.4325111 -0.56204814 1.1824603 -0.6318269 0.011398376 0.12777986 -0.22549553 0.90311193 -0.435415 -0.5230927 0.1569205 0.61537933 -0.20733413 0.019679131 -0.41587323 0.17009117 0.58744115 -1.0094019 0.25359756 -0.092730336 -0.8215616 -0.13223286 1.0846645 0.22962904 -0.15796061 -0.26538396 0.025288725 -0.38368458 0.48611495 -0.5772696 0.10971561 -0.045162104 -0.4514739 -0.48401222 0.55479056 0.2402153 0.5932534 -0.5749248 -0.40989214 0.01650742 -0.017878411 -0.6292213 -0.60527503 0.11653145 0.6399213 0.32927984 -0.48758867 0.75249887 -0.78161323 -0.16468345 -0.33298415 0.049559552 0.2070772 -0.7136124 0.20354822 0.68846065 -0.8930619 -0.9273012 0.43785 1.1074569 0.71499646 0.4915076 -0.16432784 -0.25785962 0.45757234 -0.564003 -0.66547865 0.7039417 0.01588672 -0.14680833 -0.28056273 1.3332822 0.7569525 0.5359856 0.18138722 -0.24572904 0.36149266 0.36225864 1.1355007 0.27934203 -0.014096334 -0.4755821 -0.49539 0.22796619 -0.101632565 0.0038743457 0.47368827 0.0794499 -0.6180022 -0.034394354 -0.27485952 -0.108563684 -0.30774328 -0.9216376 0.9173726 -0.9441575
YLE -0.36232695 -0.013258591 0.39819592 -0.37261376 -0.19560815 -0.10361794 0.9505635 -0.4040825 -0.5054122 -0.3495083 0.5170214 0.600629 0.42296514 -0.10261892 0.5083574 0.38925403 0.25672263 -0.058320828 0.2502578 -0.13833065 0.10112334 -0.25143668 -0.67164737 0.20102696 -0.16080697 0.020234782 0.8080615 0.622282 0.12019551 -0.49014944 -0.32219607 -0.6202702 0.08366309 0.018472837 -0.34660447 -0.19254236 -0.9204416 0.19980474 -0.96905905 0.09804887 -0.21795487 -0.30893618 -0.055372804 0.8216998 -0.09510802 0.42926872 0.106734864 0.24267535 0.2775999 0.10670953 0.14798947 -0.68461734 -0.0105485255 0.3897123 0.06003827 0.17448491 -0.43005466 -0.6443609 0.21532522 -0.46683303 0.4838983 0.013771908 -0.2571975 -0.4900688 0.028473262 -0.4649803 0.095428295 0.5471465 0.08151424 0.20035046 0.25035274 -0.115630746 -0.007423071 0.21605556 -0.04912576 0.66449726 0.74343675 0.055693716 -0.2786537 -0.37938854 -0.5960672 -0.05567057 -0.5144554 -0.21025202 0.45729393 -0.69565386 -0.5738003 0.18077978 0.6682533 -0.89698994 0.25952813 -0.5951224 -0.67088115 0.184997 -0.035880383 -0.048780866 -0.34425348 0.20176293 0.45998752 0.5668273
GSH -0.7267522 -0.6061007 -0.17668454 0.10120763 0.28002733 -0.12799494 -0.15867007 -0.17447571 0.08696127 -0.5409913 -0.8690039 0.6144091 0.29525265 0.16465351 0.5203568 0.49605387 0.14515437 0.0072886096 0.27794737 -0.5167265 0.061869223 -0.8003999 0.80654806 0.04701932 -0.29945353 0.53373146 -0.17704147 0.63986564 0.73485595 -0.80712426 0.6453519 0.17046236 0.453556 0.26524332 0.75162184 0.057405736 0.44684955 -0.33610323 0.3274693 0.69055575 -0.9475105 -0.7888123 -0.02191445 0.553417 0.0481004 -0.2512222 -0.5946956 -0.06686898 0.66924554 0.25203836 -0.032152146 -0.32330027 -0.020748232 0.46321207 0.41256094 -0.21616343 -0.51604897 -0.30899835 -0.060800277 0.024681183 -0.16353019 0.24076322 0.28331646 0.3459194 -0.05211937 0.17728122 -0.043551948 0.12336485 0.2899246 0.2580693 -0.31806126 0.023406174 -0.23159513 -0.2856187 -0.47420993 -0.033898566 0.29634824 0.42762533 0.15028657 0.49356622 0.25815007 0.15576117 0.31008103 -0.15832636 0.33058128 0.41110328 0.43614715 -0.51788783 0.31309536 -0.21213394 0.8821215 -0.2508694 -0.6204391 -0.49935356 0.57615656 -0.16386783 -0.638374 -0.42834908 0.20007643 -0.26347864
EPR -0.7664822 -0.1029195 0.009674347 0.23697571 0.07808343 0.122484066 0.104132414 -0.3199717 0.18619049 -0.49396774 -0.109871715 0.30025867 0.27596435 -0.29015687 0.019708514 0.6371972 0.095774636 0.059918445 0.42422742 -0.23750883 0.69230044 -0.8335818 0.21778776 0.22518238 0.21475793 0.03040692 0.31409678 0.43872243 0.33201933 -0.23544274 0.31234244 -0.48513225 0.29581964 -0.004750047 0.102745004 -0.71007144 -0.192437 -0.3124938 -0.09836891 0.41288373 -0.5683932 -0.6091227 0.10049698 0.09930421 0.37921742 0.16581438 -0.5905047 -0.06241215 0.76278746 0.46842355 -0.37289 0.18479033 0.11275816 0.1062377 0.20642756 -0.28378493 -0.038243532 -0.111112185 0.12977773 0.059543893 -0.269598 -0.64202404 0.2292285 -0.002705949 -0.10385823 0.32788956 -0.5161051 0.0605115 -0.13702126 0.16567169 -0.01776483 0.039330505 -0.23493345 -0.30674052 -0.9321576 0.16805172 0.10956162 0.62055624 0.01785253 -0.11358741 0.4269606 -0.01797326 -0.12308594 0.18765303 0.45208424 0.0078242365 0.35713094 -0.085112296 0.21162136 -0.9390557 0.69709736 -0.08261119 -0.5294533 -0.47711718 0.09810933 -0.21797381 -0.5940009 -0.4218273 -0.020941148 -0.34748846
AGS -0.38756502 -0.37431794 -0.0009841054 -0.82690305 -1.1116767 -0.025360258 0.4922513 0.34281605 -0.38435048 0.031903297 0.11397967 0.8607356 -0.20411775 0.2589081 0.1304255 0.3206338 0.011716469 0.0874556 -0.2642154 -0.13404208 0.06351893 0.021221124 0.21751697 0.5669536 0.7971755 0.024560517 0.2579412 0.38886398 0.14414358 -0.847091 0.40552786 -0.43379572 -0.023422554 -0.16118486 -0.37304074 0.015167604 -0.06506909 -0.09885705 0.42150685 0.25874442 -0.29091027 -0.42435393 0.45818192 0.15192895 -0.03401402 0.22040662 0.06920281 -0.4664319 0.28555223 -0.39947838 -0.23030493 -0.21558249 -0.8867001 0.38823634 0.4082954 0.8159019 -0.15087613 -0.55376375 -0.38393265 0.20380399 0.12807083 -0.13241076 -0.30897704 0.048198204 -0.13840552 0.061528813 0.1679111 0.84442663 0.4655453 0.054707576 0.65385306 0.1677133 0.013724883 -1.0127809 -0.0337418 -0.0821788 0.67001665 0.6884719 -0.11677155 0.4730846 -0.8665515 0.90101945 0.028151909 0.029261617 0.094687656 -1.0330685 -0.14174627 -0.17856641 0.36751407 -1.1012334 0.49125078 0.13615148 -0.16664007 0.026935076 -0.401844 0.36645588 -0.9017312 -0.49064404 -0.37387207 0.30586052
LRG -0.3304082 -0.5805507 0.25680324 -0.40316904 -1.0582895 -0.32871377 -0.7175714 0.25979912 -0.26027232 -0.63087004 0.44435626 0.657385 -0.6661257 1.0244532 0.5535052 0.4260121 -0.025676813 0.20804355 0.08134053 -0.6119315 0.051641017 0.13622715 -0.48878264 0.33418283 0.15579292 -0.25954798 -0.3047861 0.6257451 -0.59171426 -0.29847184 -0.47197437 -1.2715787 0.37835723 -0.3995952 -0.062151436 -0.10216391 -0.31678194 -0.69957155 -0.6605502 0.38941017 -0.70606285 -0.3105234 -0.31520805 -0.0851861 0.17843291 0.24484438 -0.13505705 -0.07517935 -0.2612189 -0.0844128 0.026709566 0.22406322 -1.3936596 0.04053038 0.77499616 -0.092513025 -0.158505 -0.18159953 -0.12927979 0.50190616 0.57631886 -1.136181 -0.28526083 -0.2429468 -0.13923603 -0.2951857 0.28187972 0.4613097 0.7434618 -0.44893956 -0.64209837 -0.26314178 1.0710194 -0.15519588 0.028288057 0.09210714 -0.20388693 -0.13757947 0.040497515 -0.6048333 -0.31645265 -0.27752018 -0.04206376 0.87478656 0.7976676 -0.4384734 -0.47395873 1.2766057 -0.5124042 -1.0932343 -0.031779204 0.5758224 -0.4544021 1.0728884 0.11090415 -0.6874154 0.12086678 -0.72647387 0.31320068 0.246143
TAA -0.6399824 -0.6571169 -0.60155463 0.4707981 -0.5775463 -0.98440254 0.47610185 0.2193575 -0.8462395 -0.11604007 0.23928243 0.8350926 0.11701307 0.5840494 0.68249965 0.6717345 -0.1357331 0.3566004 -0.009413422 -0.79239726 0.014313626 0.5442693 -0.97076666 0.2035401 -0.40004054 -0.20091587 0.040025555 0.8810045 0.6352653 -0.2676725 -0.038771365 -0.51664716 -0.5528796 -0.8455982 -0.25064087 0.8386132 -0.9861057 -0.03517789 -0.5753622 0.5078481 -0.64812964 -0.74782974 -0.54384387 0.3426621 0.9323047 0.92017883 0.102919415 0.101101086 -0.65771574 0.2506312 0.53691757 0.23381114 -0.15711956 0.3561224 0.008504412 -0.53539157 0.31312013 0.08393765 0.095014706 -0.50189084 0.41570428 -0.12528029 -0.73761725 0.17522301 -0.16462342 -1.2277863 0.124095276 0.7589352 0.18225235 -0.8346497 -0.115784764 -0.8643832 1.069205 -0.29341477 0.60239583 0.23211299 0.48692927 0.2947825 -0.12156773 -0.2286049 0.20125832 -0.30653232 -0.15909487 0.6312509 0.4548732 0.40629482 0.21252249 0.7663436 -0.5029112 -0.0034543416 0.8008893 0.20624311 -0.48680303 0.29618555 0.22840512 -0.8302417 0.6413829 -0.13752599 0.22705726 0.7140341
GAV -0.7973225 -0.23424454 1.4786798 -0.09318187 -0.019375427 1.1946802 -0.100275055 -0.48122874 0.03848761 -0.42067674 0.23108622 0.4517677 -0.25204024 -0.09070366 0.4248135 -0.53909355 -0.45494637 0.22522365 0.16953981 0.7161985 0.19481255 0.81436515 -0.29717484 -0.46012235 -0.7523682 -0.029060919 0.27106047 0.05792637 -0.006166182 -0.5300494 0.31077808 -0.25784653 -0.001411831 0.5041576 -0.27149472 -0.2670179 -0.029651817 -0.32171673 -0.43254808 1.0297575 0.31603956 -0.49686867 -0.028144602 0.6081399 0.37226495 -0.42653254 -0.8893171 0.89552766 -0.07986286 0.054511495 0.15550146 0.010295656 -0.106116965 -0.6521416 -0.18551405 -0.008203229 -0.02361075 -0.10749979 -0.027053157 -0.5582633 -0.18757626 -0.16379751 -1.0695574 0.17222579 1.0237837 0.25607663 0.15987489 0.5873727 -0.54158986 0.26347533 0.3308125 0.20507345 0.074109785 -0.29768664 0.024733748 -0.24415393 -0.76401144 -0.19777669 0.49345276 0.23498568 -0.49883908 0.53125006 0.587979 0.64686245 -0.07849862 -0.9845991 0.14187142 0.27251685 0.30356017 0.064881906 1.1114433 -0.5049266 -1.6245922 0.089709155 0.20903915 0.87293416 -0.28854993 -0.6852019 -0.05430601 0.3948364
AAV -1.0099834 0.70916307 -0.47877485 0.21872297 0.09528563 0.1607887 1.1545496 0.6316152 -0.49186495 -0.50715756 0.0045458744 0.33974501 -0.033712126 -0.1897292 0.65748715 0.35569665 0.57061327 -0.49208346 0.5436842 -0.39814198 0.21252963 -0.5153522 0.24761264 -0.403373 -0.5302862 0.42839852 0.08761136 -0.17440255 0.6590448 -0.33420274 -0.4151652 0.8103615 0.2199588 0.39138973 -0.046928037 0.26673552 0.19381648 -0.07045611 -0.07691893 0.797484 -1.0271276 -0.28273743 0.26796123 0.73859626 0.62174994 -0.17376658 0.80919176 0.95800066 -0.39200017 0.28730634 0.04045667 -0.30145732 0.083645605 -0.43138933 -0.028571518 0.80879706 0.2727893 0.04983363 -0.9925156 0.63512784 -0.6653247 -0.19195831 0.32811147 0.3143469 -0.6584251 -0.29553926 -0.15350656 1.2607975 0.65613925 -0.6278224 0.44064376 -0.8835377 0.05861587 0.04211513 -0.4238693 0.40161932 -1.132903 -0.46110854 -0.16859385 -0.33991253 -0.02735192 -0.7736768 -0.25444797 0.27309033 -0.22569579 -0.23808722 0.23857489 0.5958891 -0.7823826 -0.56859505 0.5211845 0.52785987 -0.10224419 0.03438529 -0.3046337 0.42895064 -0.124302916 0.3524194 -0.61784947 -0.15985201
AAS -1.144526 -0.30174524 0.12926309 0.17480905 0.014583365 0.52872103 0.40380237 -0.5054585 0.86685306 -0.23025753 -0.4859463 -0.43677512 0.90615845 -0.5534307 -0.10124292 -0.044097133 0.41679344 1.0204136 0.9504948 -0.911404 0.1422224 -1.5308727 -0.04913852 -0.24374141 0.26188216 -0.12101407 0.48407745 0.49372268 0.6945747 -0.25354284 0.5533824 -0.41484377 0.4367866 -0.14997831 0.32115075 -0.22405867 -0.38409323 -0.2700125 -0.052782163 0.7758893 -0.67631197 -0.770432 -0.44600636 -0.88110137 -0.7557184 -0.19953959 -0.95023227 0.43377084 0.06996812 0.17987707 -0.6444429 0.73501694 0.6169204 0.16971077 -0.075538784 -0.21626191 0.46488878 0.6247438 -0.33773538 0.138247 -0.01755682 -0.7049025 0.5506949 0.92995554 -0.96437967 0.17018405 -0.6284061 0.51560277 -0.09275503 0.25462833 0.54143363 0.038288355 -0.4479718 -0.19861434 -1.5138005 -0.029317684 0.012474407 1.1367121 0.22886361 0.44894224 0.49447605 -0.23266865 0.066340126 0.37681577 0.42611033 0.11230663 0.22387186 -0.41322258 -0.049275372 -0.82379234 1.5431952 0.6375277 -0.1863465 0.6177305 0.08781908 -0.26424226 -0.26148868 -0.58919114 0.5603986 -0.2493554
VVV -0.2041316 0.4737979 0.2297543 -0.5077542 0.45084023 0.08926129 0.36361647 0.4481504 0.11926726 0.028972417 0.18149297 0.2805143 0.2925543 -0.17313904 0.07191839 0.060100242 0.7017515 -0.14056854 -1.1496332 -0.13213128 0.9290844 0.24323915 -0.22034033 -0.013969621 -0.51795435 0.79650825 0.09557909 0.025017092 0.29398137 -0.9050122 -0.9246633 0.7443466 0.57999504 -0.13932627 0.05854067 -0.3196655 -0.5716291 -0.013352709 -0.25073576 -0.0964988 -0.6552071 0.20962338 0.07209428 1.0430791 -0.17650382 -0.06086459 0.1867319 1.4227315 0.058494862 -0.40837762 -0.25676984 0.21034306 0.30169547 0.26296335 0.25620165 0.47564268 0.4114153 -0.36428958 -0.26059014 0.22474091 -0.59514165 -0.4518949 -0.45759076 0.13081212 -0.5223566 -0.42755297 0.23642471 0.17972897 -0.006195553 -0.61492753 0.05884913 -0.85345715 0.065273665 -0.103420086 -0.4502345 0.37102005 -0.7396522 -0.22337648 -1.3331748 -0.26236823 0.28794268 -0.49090928 -0.6926539 -0.5136207 0.7746077 0.8951025 0.28923792 0.5690686 0.10097398 -0.64168173 -0.014518242 0.21389997 -0.3533824 0.7309796 -0.13852005 0.32956412 -0.5522106 -0.77457595 -1.0064092 -1.0218633
LAV -0.27540126 -0.090004854 0.30870992 -0.51700133 0.12914997 -0.027692253 0.46656933 0.10864899 0.7515904 0.037163895 0.11502635 0.16408314 -0.28654397 -0.6669994 1.1359342 0.6749761 0.16850851 0.4292415 0.012775793 -0.6297708 0.21674068 0.09164597 -0.76985204 -0.7567056 0.3267236 1.2775428 0.91431767 0.07825269 0.06255451 -1.4438074 0.7232935 -1.2221801 -0.7723698 0.07780299 0.35047993 0.40090334 -0.68309253 -0.07679047 -0.14111644 0.19202645 -1.1725547 -1.119445 -0.38861623 1.1869559 -0.33222812 -1.0226705 0.055327542 1.2298052 0.31507447 0.027905995 0.6007207 -0.5507573 0.24730551 0.41762638 -0.23886444 0.33773047 -0.23051913 -0.8936088 0.56041455 0.16410455 -0.19758248 -0.16828747 -0.033234138 -0.6666959 0.55247664 -0.29255092 -0.25236234 1.1740657 0.39731663 -0.060914084 -0.5315814 0.057503838 -0.74806017 0.24361236 -0.21372569 0.30935368 1.198732 1.0311689 -0.44348943 -0.11815806 -0.51979107 -1.459113 -1.0325654 -0.106208675 0.34606066 -0.6133826 -0.358727 0.25478178 0.37218735 -0.24048027 0.2522317 -0.049952075 -0.55406564 -0.6065257 -0.84396917 0.18292123 0.98017085 -0.07686081 -0.38816938 1.8292623
TLQ -0.2443876 0.5177697 0.03518816 -0.22150019 -0.1007133 0.72718704 0.41633016 -0.5808633 0.9062077 -0.609533 0.056820482 -0.036001515 0.4557203 0.039686486 -0.6537646 0.21768747 0.5399843 0.092551515 0.6629966 0.9189405 0.26256478 -0.71377915 0.103995286 -0.28479826 0.01789823 -0.11816229 -0.22046576 0.4347228 0.40364608 -0.17222351 0.12301741 0.0026698844 -0.20523624 0.093548484 0.64803743 -0.13236576 -0.7481353 -0.43040895 0.74020344 -0.04805383 -0.8086623 -0.9261469 0.15200315 0.4833513 -0.18977983 -0.4460345 0.04013115 0.3690834 0.49925256 -0.6134601 0.1707497 0.08963252 -0.8045024 0.16303542 0.3689295 0.001459929 -0.80670714 -0.81114674 -0.5844825 -0.9927049 0.14129463 -0.093713306 0.3060334 0.47230586 0.5186813 0.08112112 0.41564322 -0.18516496 -0.29655182 -0.36982995 -0.09643159 -0.4463616 -1.272943 -0.20705454 -0.88469005 0.13191274 0.17802094 0.77431786 -0.105711624 -0.0671551 0.1528368 -0.587403 -0.11312186 -0.2759435 0.44507012 0.1643601 1.676711 0.16173047 -0.6545719 -1.2058618 0.6583449 -0.28040084 -0.28179806 0.21647611 0.32722467 -0.18196885 0.18732417 -0.65076375 -0.22623086 -0.68817633
RGY -0.115483075 -0.4747478 -0.2696304 -1.4905291 -0.4553727 -0.15808082 0.62043905 0.10292262 0.5025539 -0.43510282 0.19889678 1.0956568 0.0040620253 0.07813013 0.17096369 0.630747 0.19992694 -0.06386483 -0.070968755 -0.1543308 0.5884572 -0.057571538 -0.39391065 0.58112884 0.036701806 0.3621555 0.3206762 0.17168482 0.23623365 0.31661198 0.079795025 -0.08039429 0.86752236 0.16154337 0.4095915 0.13330859 -0.3092068 0.07601114 -0.7001719 0.090391986 -1.1587709 -0.55163467 0.96579933 -0.27155 -0.31514552 0.3209039 -0.6617522 -0.14155167 1.7373143 0.38728246 -0.19025919 -0.6003419 0.5515975 0.62083995 -0.27334374 0.007217268 -0.8016829 -0.8188221 -0.016786246 -0.44325817 -0.73522156 -0.02292327 -0.38843167 0.17486916 0.48531333 -0.60405743 0.3087863 0.5081931 -0.5184979 0.6284795 0.15766777 0.20201348 -0.40929246 -0.19454266 -0.89058393 0.39734668 -0.03426709 0.6269584 1.1159687 -0.21235915 -1.041072 0.24665785 -0.12459953 0.27339575 0.75765777 0.36427844 0.03484329 0.45189607 0.26481724 -0.008362494 0.40678474 0.03263962 -0.36035722 -0.73118067 0.31599584 -0.88982826 -0.48894933 0.35541326 0.39456567 0.061029248
ETR -0.40793112 0.85252535 0.2218529 -1.1016335 -0.30831805 -0.8052887 0.47379965 0.015712919 -0.5156559 -0.24729829 0.1983493 1.0161831 -0.40590635 0.8021709 0.3183663 -0.1657896 0.25526622 0.101614 -1.2165354 0.3054136 -0.21705222 -0.5911677 -0.6333888 0.42585793 -0.24264024 -0.1139468 -0.7777024 0.74425364 -0.23910329 -0.42819718 0.50389564 -0.322409 1.0010653 0.68078196 0.17019054 -0.7921304 -0.16627641 -0.33945742 -0.45080802 0.68353677 0.5459791 0.15036309 -0.2628929 1.0912694 0.09246969 -0.63803446 -0.6933447 -0.013324842 0.17334425 -0.15406437 -0.49103272 -0.390352 0.14257748 -0.43362755 -0.2920127 0.21972251 -0.91409224 -0.2231624 -0.91556704 0.5470121 -0.22451238 0.744032 -0.3684606 -0.15450057 0.17773837 -0.10571338 0.31957555 -0.14006312 0.3097037 -0.15099773 0.57323426 -0.6110784 0.45101 0.17512703 0.12962787 -0.19468571 -0.9826811 0.6704197 -0.7176106 0.4836793 -0.3133962 0.2717449 -0.87230927 -0.50665456 0.8744392 -1.0618509 0.69769454 -0.3688797 0.75368464 -0.87599254 -0.11549559 0.9818958 -0.36682105 0.7051576 -0.33733523 0.05554651 -0.35336667 -0.53478664 -0.21849355 -0.7543245
EGL 0.14873369 -0.103314854 0.6066959 0.23571716 0.6417147 -1.2191838 0.37705696 -0.08238283 -0.0917155 -0.6713836 0.87121403 0.3941089 -0.3513831 -0.543948 1.4549799 0.097559616 0.25555348 0.54603904 0.53035307 0.114014626 -0.9451743 -0.29513252 0.21561694 -0.3556249 0.42128545 0.1280108 0.47578174 0.46261728 -0.11669484 -0.2180583 0.4780234 -0.55089706 -1.4733455 -0.0350927 -0.03602764 0.24230842 -0.4155841 -0.07793747 0.009394999 0.797718 -0.6149543 -0.201643 -0.9142642 1.1108902 0.6638528 -0.33418715 0.4695535 0.45150054 0.045802746 0.5412488 0.43332037 -0.17983739 -0.57241184 -0.37140927 -0.22961661 0.07551519 0.28243393 0.126477 0.6534024 0.9902836 0.81529224 -0.29283193 -0.08371635 -0.37543374 0.77706164 -0.6526303 -0.8571978 0.20991054 -0.39498487 -0.47704455 0.33987865 -0.60231155 -0.3101001 0.29262683 -0.36384708 -0.066765524 -0.12102652 0.20696898 -0.85092765 -0.37708384 0.1735253 0.10185847 -0.49750912 0.3048378 -0.27574894 0.11693969 -0.011092039 0.23243602 -0.03937423 0.23539995 0.20618615 -0.35846603 -0.009634034 -0.17346928 -0.8366808 0.4911458 -0.3774331 0.2201086 -0.45720735 0.61994827
GSD 0.06293264 0.9565443 -0.31920984 0.9792658 -0.61485654 1.1019622 -0.8951554 0.6159231 0.8617195 -0.23253669 0.039581098 0.68655986 0.14207757 0.3822411 -0.2300962 0.1376315 0.52534646 -1.3004107 -0.40082356 -0.15120031 1.0906738 -1.8847425 0.10005762 0.28801435 -0.6183885 -0.7003475 -0.09173504 0.15992226 0.22404115 -0.9944974 -2.0819318 0.44120356 0.634829 -1.4665444 -1.3497733 0.75046235 0.36324567 1.8160582 1.0196627 0.75392514 -1.6516697 -0.97619855 0.8412831 2.3400755 1.5414356 -1.4861974 -1.1812774 0.28652734 0.32793295 2.1125488 -0.2958618 1.2755984 -0.86736995 0.003601236 -0.13846458 1.514585 0.22630356 -0.6671714 -0.6840613 1.7592051 0.81592727 0.6419346 0.24573724 0.6386433 1.0070267 0.7276935 -0.08922126 1.5804306 0.5705043 -2.6897526 0.22443378 -2.7209938 -0.6844543 -0.39532495 -0.24126258 0.3466969 -0.6932037 -1.6387615 -0.44274974 0.01693741 1.4562222 -0.6347077 -1.7788655 0.33066356 0.2592189 0.43298346 -0.539725 1.7622615 -0.2395012 -0.79201627 -0.17712048 1.183672 -0.65624934 0.33436006 0.3585162 -0.101215795 0.22176895 0.5291765 -0.8470234 0.34668225
DGE -0.46921661 0.77428484 0.3679961 -0.063423246 0.07289631 1.0221246 0.6426575 -0.86212397 0.82639503 -0.85082614 0.6249163 0.12511414 -0.20677517 0.0297854 0.5742846 0.2930398 0.75080603 -0.019256175 -0.5784898 0.59178334 -0.114924945 -0.45809847 -0.11580081 -0.29651138 -0.50431156 -0.14044093 -0.039759118 0.5930406 0.7662333 0.19403896 -0.12651175 0.022659205 0.5269717 -0.29838908 1.2043515 0.16431673 -0.6105819 -0.4987177 -0.41897097 0.78221405 -0.7230994 -0.31790638 0.3395875 0.5562801 0.29350355 0.1257572 -0.2870572 0.49629614 -0.011253227 0.743639 -0.315855 0.81838363 0.112824984 0.4737854 -0.6618696 0.16865088 -1.2151737 -0.1392786 -0.55958307 -0.045451164 0.29295692 0.13734579 0.46868736 0.02003071 0.43060318 0.5023786 0.67496485 -0.44539303 0.11421376 -0.52344286 -0.30283558 -0.40846235 -0.13926852 -1.1603724 0.2089098 -0.1372242 0.2438503 1.1651192 -0.35681927 0.19441575 0.61399925 -0.41561946 0.81919086 -0.59956586 -0.23570208 0.688198 -0.19418271 -0.12764986 0.027405027 -0.77804136 0.32869497 0.25595945 0.053683214 -0.54077774 0.8017927 0.3926522 -0.5780279 -0.8367982 -0.68238413 -0.4358854
GEP -0.7716752 -0.14828266 0.087863624 -0.33667916 -0.5408078 -0.49779075 0.48190728 0.04782719 -0.4570482 0.5283935 -0.14400055 0.5762829 -0.25325954 0.18589796 0.5194202 0.593833 -0.036617316 0.38797733 -0.4247437 0.124922395 0.03401495 0.26684597 0.47764966 0.020497201 0.0040435907 -0.28568855 0.51655453 -0.20198461 0.10817612 -0.7442028 -0.06391545 -0.7886525 0.32594723 -0.12036619 -0.06060519 -0.021055633 -0.15749274 -0.057477184 0.052275404 0.29864833 0.019928824 -0.8498388 -0.0327975 0.002569082 0.38004023 -0.110382386 0.06203566 -0.35865152 0.53658706 -0.5960525 -0.023727102 0.041271336 -0.26859 0.3221146 0.31639883 -0.07498269 -0.30419233 -0.2448519 -0.27893007 0.364195 -0.49543303 -0.53893155 0.14884192 0.4774619 0.38473514 -0.31389463 0.33107716 0.35591495 0.31100184 -0.028497996 0.7586676 0.20854196 -0.650256 -0.56245625 -0.10790764 -0.24758086 0.1549304 0.20322393 -0.30792198 -0.19515194 -0.7323056 0.33961803 0.2303297 -0.04041504 0.22692221 -0.51407534 0.12848721 0.16160166 0.13430712 -0.38047647 0.006652861 0.6188323 -0.9319458 0.62904227 -0.435229 -0.015396134 -0.4241606 -0.79581314 0.055903528 -0.3219815
RGE 0.49836147 -0.39935 -0.34500802 -0.15451996 0.02233705 0.042832054 0.78375864 -0.04982075 0.059488844 -0.50630057 -0.7278911 0.5337671 -0.1509585 0.10179004 0.19876747 0.45936766 0.30598906 -0.7780547 -0.052626666 -0.67276126 0.017530875 -0.667836 -0.11596724 -0.2737256 -0.3068319 0.09759292 0.35485896 0.5322056 0.2839341 -0.26774886 -0.14977323 -0.22583212 -0.05785567 -0.31307614 0.014491302 0.3712642 -0.45702308 0.004340685 -0.2243712 0.26636544 0.3258775 -0.5868064 -0.45566717 0.25705743 0.968189 -0.6546942 -0.28770438 0.041868865 0.040582124 -0.548414 0.34904364 0.21192695 -0.012899156 -0.07946708 0.121463604 0.27051285 0.11995556 -0.59291834 -0.12517586 0.5661064 0.60728794 -0.72803116 0.3039275 0.3611304 0.4932042 0.2857309 -0.37586394 0.2884565 -0.17069271 -0.45789853 0.21513976 -0.4880873 -0.010668646 -0.24111794 -0.0036610065 0.5941579 0.34016734 -0.029891247 0.36039314 0.30887017 0.22012118 -0.12862577 -0.113848604 0.03645609 -0.24331987 -0.70080054 -0.25483456 0.9628684 -0.33551678 0.12904342 -0.01001932 -0.149897 0.0045951707 -0.26671517 0.1003469 0.13090889 -0.3981205 -0.9188793 0.11927963 -0.42420286
IAL -0.054480065 0.6397579 0.12078507 -0.35661325 0.8066431 0.52053225 0.34964737 0.36615285 -0.31378236 -0.3873908 0.4078779 0.50474876 1.2857875 0.1487123 0.29750782 0.08978952 0.2679261 -0.5512101 -0.018278489 -0.4084651 -0.67399305 -1.1057405 0.62226707 -0.6121976 -0.59763134 0.70346516 0.54167646 0.37716007 -0.37262702 0.015946241 0.2098852 0.4527202 0.0780594 0.09123579 0.23665357 -0.04844432 -0.5493274 0.3316 -0.3450771 -0.09298195 -1.4114083 -1.1735953 -0.12684119 0.2633214 1.183516 -0.047658756 -0.94981724 -1.0632907 -0.021861857 -0.10660302 -0.17691636 -0.5031159 -0.14403091 0.118778646 1.1162742 -0.68387383 -0.32861897 -0.15410773 -0.11191753 -0.7071078 0.3992367 -0.4228797 -0.11360863 0.33800483 0.6176587 0.5438683 1.1287466 -0.13363637 -0.33963642 0.85774064 -0.1414554 0.12770398 -0.3029265 -0.12367315 -0.54363954 0.48684952 -0.018184736 -0.34067044 0.04856289 -0.23519588 1.0558165 -0.033873927 0.020765204 -0.7330797 0.3905129 0.3343846 0.29965395 0.6846204 -0.9366915 0.025175404 0.56731004 0.6380834 -0.1509972 0.19420162 0.6680832 -0.55314714 -0.2704416 -0.9233729 -0.67348135 -0.10011251
EDL 0.3270524 0.5094961 -0.6903295 -0.5313737 0.12394595 -0.5074852 -0.024100782 -0.108269505 0.26986456 -0.37464797 0.14821264 1.2495376 0.5856942 -0.034740724 0.11824537 0.88921314 -0.32581615 -0.47443026 0.40328172 -0.5703633 0.13231227 -0.22426218 0.76912135 -0.30784893 -0.13416174 0.40310258 0.00042307144 -0.35150507 -0.62411046 -0.04224789 -0.13938235 0.37930492 -0.4599924 -0.27371192 0.07899491 0.34388417 0.31372333 -0.14893873 -0.85643613 0.08061573 -0.65157294 -0.5195901 -0.61640495 1.144738 0.6865719 0.90018564 -0.10015548 -0.49904287 -0.53636837 0.092864774 0.34159788 0.85747325 -0.65811706 0.26717666 0.3171827 -0.70247877 -0.30758855 -0.028154276 -0.23670281 -0.66668797 0.0311955 -1.257227 0.3170239 0.62421435 1.311618 -0.6872513 -0.42968494 0.01632573 0.7048802 -0.43361473 -1.0317532 -1.2043933 -0.13949499 0.14481598 -0.9376072 0.01810931 -0.59204453 -0.74273944 0.69495827 -0.08124191 1.0702046 0.1410942 -0.5987256 0.30662617 0.48227063 -0.21917939 -0.32927018 0.33982044 -0.2922646 -0.42719653 0.6576789 -0.6344579 -0.8285989 -0.041379627 -0.07292401 -0.6249642 -0.35607257 0.120560326 -0.16240983 0.20370573
LQR 0.4603545 -0.32863346 -0.10829646 0.06104227 0.06235961 -0.9238443 -0.27529597 0.4731482 0.26343122 0.15613212 -0.37625885 1.2848682 0.13826135 -0.594816 -0.07135436 -0.4663963 0.77856094 -0.61463225 -0.7885566 -0.4436612 -0.2558079 -0.164855 0.18601918 0.054748166 -0.76806045 -0.12691697 -0.62131584 -0.020585328 -0.34237415 -0.6811045 -0.60272884 -0.53858787 -0.25172314 0.11878773 -0.34821704 0.13600974 0.049193133 0.4103773 -0.23848242 -0.30185184 -0.92902094 -1.045773 -0.23632064 0.49468458 0.7186337 0.54781306 -0.09778829 0.83117914 0.15937734 -0.102693275 0.2593962 -0.6558294 -0.23777981 0.25504413 -0.03630717 0.22177766 -0.01811343 -0.32671663 0.64936954 0.19822742 0.5320838 -0.51973104 0.023640264 1.1051681 0.1906112 -0.663827 0.0013129325 0.40291741 0.4416595 -0.20655285 1.0616428 -0.96291167 -0.4182886 -0.057131547 0.3685477 0.112433545 0.4378007 0.01553491 0.46335924 -0.5630988 0.20477217 -0.28419796 0.096997544 0.4862885 -0.59631497 -0.09551884 -0.3816316 1.2749224 -0.98720473 -0.3540525 0.5757105 -0.09218095 -0.67417413 -0.5324342 0.19589238 -0.42343634 0.25110725 0.9928077 -0.04158467 -0.1506767
EQR -0.30675408 0.33870593 -0.38389724 -0.4104968 0.09735702 -0.022613939 0.9957378 -0.033662118 0.015046518 -0.32866782 -0.26181084 -0.08932297 0.26843134 0.193943 0.1528519 -0.44030315 -0.79748946 0.8657258 -0.21989423 0.16978723 0.20594224 -0.14545116 0.58089054 0.38112363 -0.4607862 0.45931795 -0.42701754 0.19911529 -0.59920925 -0.1729172 -0.10411386 0.14475873 0.0071152793 0.4331214 -0.9429898 0.54497814 0.056221344 -0.8951686 -0.83122057 -0.53077614 -0.9972478 -0.27645096 -0.39157602 0.6218515 -0.00683572 -0.45655668 0.18377358 1.008744 0.25219753 -0.35596356 -0.50975597 -0.6633737 -0.19542442 1.207707 0.008815337 -0.30070496 -0.7218584 0.6759921 0.58057994 0.6222144 0.019039154 -0.07276058 0.36222288 0.44451094 -1.4038429 0.3034202 -0.01320814 0.3458704 0.4664721 0.016010717 0.4068115 -0.19056983 -0.5828751 -0.17627543 -1.3201685 -0.115170434 -0.182991 -0.46032864 0.2169167 -0.20019838 0.550235 -0.36739126 -0.897595 -0.7161401 0.15948832 0.6819545 0.23399554 0.11007803 -0.15290828 -0.8115065 0.331858 -0.15260287 -0.112053834 0.15113114 0.27824533 -0.28282958 -0.34781557 -1.1540718 -0.827785 0.016685229
YNQ -0.26024878 0.37857485 -0.40841806 0.37712383 0.16791579 -0.16526838 -0.3220467 -0.37353852 0.1266163 -0.35135213 -0.1732483 0.92350423 -0.029763767 0.15159903 0.52924037 0.5406067 0.49485725 -0.5014493 -0.59704924 -0.7125168 0.12939852 -0.36837828 0.8923584 -0.24160829 0.17879367 0.9611829 0.8073952 0.07607002 -0.1251187 0.26528558 0.55075634 0.14750034 -0.9202241 -0.092443176 -0.13410601 -0.5800336 -0.25777385 -0.2748352 -0.19593586 0.4169763 -0.7552764 -1.6701361 0.52625656 0.17656429 0.24669996 0.41099817 -1.2295574 -0.25636035 0.64494 0.5347737 0.1512606 -0.46633595 -0.27215123 0.31448174 0.3961474 -1.3940015 0.23036364 -0.009210563 -0.47531644 -0.7518317 0.40400285 0.40883523 1.0968362 0.5321318 0.46725503 0.30225578 0.06640924 0.13442828 0.8708786 0.23638232 -0.43476734 -0.8582171 -0.27180025 0.50815666 -0.6109264 0.09105623 -0.19359441 -0.2460457 0.6065537 -0.15403734 0.5748411 0.68262815 -0.22167075 0.37208337 0.059811138 -0.2194081 0.7500349 -0.5635456 -0.53920573 -0.45073304 1.0033537 -0.19065931 -0.19631638 -0.7461452 0.34602606 -0.120782316 -0.01864218 -0.63784283 -0.51474655 -0.3670769
APR 0.17922905 -0.13344045 0.1749045 -0.28189498 0.699249 -0.24338883 0.2040311 -0.67612106 0.03528944 0.09015785 -0.63867116 0.4981306 -0.3659365 -0.35157377 0.10652173 0.5795287 0.10842332 -1.3268048 -0.11552271 -0.6386411 -0.19197299 -1.4929215 0.20414664 -0.4561956 -0.68406045 -0.20159245 1.0275738 0.3089629 0.6362479 -0.5147985 0.21829842 -0.33639988 0.29336527 0.15061672 1.02788 -0.7602549 -0.6681242 0.20331068 -0.70940924 -0.11690262 -0.19304861 -0.29184747 -0.1261541 -0.10326302 -0.010821315 -1.1467432 -0.39927465 0.5356013 1.1986104 -0.7135872 -0.34970468 0.26217377 -0.15636364 0.34926623 -0.019450571 0.37000412 0.08495169 -0.30473846 1.1365436 0.83983546 0.36291483 -0.4637839 0.31960556 0.3468954 0.84397185 0.35105857 0.54222834 0.8165877 0.58494407 -0.19168915 -0.5162772 0.11486399 0.429095 -1.0826532 -0.99765086 1.1715486 0.38587946 0.47914442 0.20489758 -0.25625494 0.73710316 0.2836951 0.16869684 -0.17809628 0.09394439 -0.9933757 -0.169304 -0.008476 -0.68440086 -0.12900971 0.18450445 -0.02780654 0.3564879 -0.1456277 0.20010255 -0.038326092 -0.35455975 -0.4582575 1.2535199 -0.9274482
GKD 0.08236079 -0.3426621 0.61421293 -1.2983464 -1.621416 -0.54269874 0.90553635 -0.33801728 -1.1377811 0.5978967 -0.297917 0.54844654 0.49061707 0.3957015 0.39876667 0.82271856 0.9515177 0.19672388 -0.25075713 0.6690974 -0.76772183 -0.35462078 -1.401582 0.18378067 0.058915116 -0.020792767 -0.19818525 0.30125263 0.34645802 -0.2511337 0.1802243 0.024625842 0.88340896 0.2451789 0.70428634 -0.25660685 -0.18633892 -0.6663279 -0.6475548 0.53403986 -0.95866823 -0.44679072 -0.7300204 0.7971728 0.016571915 0.014184736 -0.34005874 0.26182902 0.68605053 -0.29419956 -0.3103879 -0.49500528 -0.030816412 0.4488315 -0.40592697 0.22740248 -0.421341 -0.7647844 -0.12800258 -0.23534156 0.32710946 0.05010174 0.29453906 -0.38773707 0.6173497 -0.43563208 0.109309725 0.26939845 -0.11503504 -0.55155456 -0.28901324 -0.24231336 -0.37565452 0.27794346 0.26202384 0.9919666 0.23863706 1.0876067 0.06992539 0.26031363 -0.91770035 0.27597103 -0.41007808 -0.006940632 0.8963103 -0.25501922 0.83286554 0.0798023 -0.05983675 -0.16159908 0.24638008 0.33155096 0.2500328 0.19237535 -0.27232468 0.24404995 0.55970997 0.017231435 0.2531119 0.5718275
PRT -0.80560064 0.4271867 0.47760996 -0.29460162 0.64744735 -0.7515517 0.70800495 0.13676628 0.3616414 0.58571625 -0.050481226 0.95855653 -0.11681769 0.43495813 -0.1598181 0.5365148 -1.0204656 0.65292186 -0.26755434 1.0242763 -0.56978965 -0.36758545 1.1642967 0.15097766 0.6943216 -0.35928923 0.40089288 -0.028469881 -0.22727486 -0.968368 0.116764806 -0.84181535 0.69275296 -0.5048886 0.33390528 -0.92152035 -0.47981724 0.12874427 0.07189069 1.0772372 -0.48916048 -0.3017445 0.6146721 -0.10616638 0.45793462 -0.50527865 0.08527092 0.4750746 0.7064317 -0.8720777 -1.35553 0.19488797 -0.61229104 -0.018777994 0.3083653 -0.56025124 -0.25107038 0.5594347 0.7069775 0.7909281 -0.6686787 -0.5725715 0.7065954 -0.19417445 0.96969134 0.09757054 -0.16309464 0.7070325 0.6954798 -0.2894144 -0.057477918 -0.20882584 -0.37793356 -0.57831705 -0.58255506 0.49270082 0.81880856 -0.32502007 0.21989606 -0.7443024 -0.0918098 0.80801284 0.642427 -0.07503639 0.34174404 -0.35555294 0.29872283 -0.15650252 -0.72044545 -0.43275684 -0.120166376 0.42007023 -0.9011199 0.103334546 0.31329834 0.6190981 -0.9056126 0.179602 0.4900266 0.0020976074
TWQ 0.1350376 -0.42755812 0.13135163 -0.2872476 -0.34611893 0.8636081 -0.4443205 0.29498002 0.8257853 -0.19859138 0.23616894 0.7826578 0.5981221 -0.45065832 0.51692224 0.065560676 0.5277182 0.37002772 0.401785 0.3235396 -0.136373 0.47324023 -0.16394481 -0.98150283 0.4223238 -0.011983695 0.8322107 0.37916353 0.39922196 0.1949774 0.48123285 -0.2587773 -0.29024962 0.13781635 0.608118 0.500235 0.35539597 -0.93159753 -0.6520107 0.7300324 -1.1320369 -0.026356544 -0.59084994 0.16656733 -0.74333596 0.97676885 -0.8514613 0.7744155 -0.13950403 -0.05982113 0.17423777 -0.1911956 -0.4099573 0.43306533 0.28119048 0.09117576 -0.36337805 -0.43499294 0.4556337 0.06892397 0.62640387 0.07190315 0.31948832 -0.20945396 1.1696587 -0.09092134 -0.11874072 0.10118395 -0.38520944 -0.20122434 0.9031934 -0.27248073 -0.6453827 -0.37996376 -0.19227043 0.9116522 0.77379614 0.779451 0.5940103 0.4417139 0.20046827 -0.09464675 -0.26134205 -0.4898396 0.7701066 -0.34894365 -0.65615743 -0.66267145 -0.08096986 -1.1697798 0.37572294 -0.24003541 -0.3319145 -0.16597937 0.7842559 -0.706055 0.12144873 -0.2408373 0.7834208 0.0013215677
SAQ -0.8405406 2.5651278 1.0464529 -0.98363376 0.097458035 -0.13560289 2.7597618 -1.8906213 -0.7116628 1.0334653 1.0801202 0.25918472 -0.036015097 0.6781692 3.0838618 -0.5866151 1.1980296 0.60277635 -2.2357483 0.24220355 1.0925952 -0.63291514 -0.13337666 -2.8112001 -1.2403563 1.4242202 1.920778 0.5871183 2.7167 -2.3417137 0.7691317 2.2764926 1.1195252 -0.18927088 -0.4365911 -0.93580574 0.3461619 -1.0612205 -0.26072162 0.9976444 -2.1681192 1.1101528 0.26691324 1.8894296 1.7818489 -1.4149827 -0.91960543 2.0827384 0.0403798 0.0059078904 0.5446398 1.5275629 -0.087738104 1.4489417 -0.630165 1.3447156 -1.083057 -1.0097862 -0.40148777 2.608366 -1.4536391 -0.04856187 -2.0164757 1.2105163 1.7046696 1.8114015 1.2609897 4.52958 0.37192577 -1.0046773 2.2537968 -2.800565 -1.4464825 0.4607836 -1.762027 -0.27516004 -2.0283427 -1.1583445 -1.4702518 -0.96402586 0.80426484 -3.768703 -2.0430307 -0.21224058 -0.7864876 -0.69355536 -0.31273088 1.803238 -0.122106716 -2.7304282 0.97245944 0.34091717 -1.898734 -0.7556875 -0.14667274 1.1084504 -0.45513093 0.26906344 -1.332338 -1.6903691
AVM -0.3463405 0.19568896 0.018851161 -0.38571024 -0.31410697 -0.39636773 0.22465476 0.141701 0.2275682 0.44644594 -0.15564185 0.19195627 -0.5006578 -1.4297019 0.50981766 -0.63710696 -0.19302006 -0.46472007 0.5162862 -0.85533255 -0.059687383 -1.9700335 -0.57253206 -0.49462268 -1.7354362 0.22169106 -0.29321477 -0.42506352 -0.2818027 -0.38311636 -0.3934651 -0.7088734 -0.20026001 -0.5130668 0.13657469 -0.28880084 -0.52506363 -1.27747 -0.2845385 -0.21730615 0.15496099 -0.5679019 0.078506336 0.5468184 -0.5626728 -0.35805932 -0.007139997 -0.08591383 -0.4890398 0.3364281 0.5945479 0.46183446 0.6781062 0.6947468 0.23638244 0.26117352 -0.412859 -0.42804357 -0.21384975 1.0227207 0.915962 0.036832385 -0.47263566 -0.372325 0.050275426 0.55081487 0.024128186 0.8174629 0.5254486 -0.40398154 0.4621431 0.10198352 -0.22528149 -1.0785825 -1.3193161 -0.40868554 0.16899441 -0.1808114 0.85672855 -0.37208253 -0.95426387 -0.47482583 0.46193942 0.4327677 -0.6953526 0.2141551 -0.32764852 0.78436273 0.5615169 -0.49176273 0.6734555 0.5653801 -0.87182754 -0.44254 0.58181614 0.15553182 0.17441103 -0.21051365 -0.30072594 -0.30698997
PRA -0.19598383 -0.3691127 0.033185434 -0.5107306 -0.2230354 -0.59884757 0.61886483 -0.28736472 0.21502548 -0.38815418 -0.116154574 0.95569587 0.032618746 0.44315076 -0.3024155 -0.027057702 -0.14212786 -1.1956286 -0.20999144 -0.20951165 0.38591543 -0.6752055 -0.02218764 -0.04824943 -0.23661928 1.2090944 -0.04112369 0.16366729 -0.5009718 -0.51272315 -0.25103962 -0.80279064 0.068552166 -0.7636568 -0.6098239 0.8236661 -0.6148989 0.52537024 -0.72423184 0.19655575 0.32367396 -0.7411752 -0.20627593 -0.038868785 0.7622033 -0.99247944 -0.36387125 0.59493107 0.021476831 -0.4421372 -0.014548799 0.58518183 -0.09473017 0.009788664 -0.23701297 0.22187418 -0.08798307 -0.360803 -0.25401258 0.5477505 0.30571458 -0.92091435 0.14133205 0.4951388 0.8916029 0.04519922 -0.4980388 -0.120607 0.16845912 0.028891573 -0.062448297 0.12806866 -0.036249 -0.31748983 0.16021146 0.27513865 0.49367142 -0.36125124 -0.01927229 -0.21596706 -0.059409317 -0.7462879 0.5178827 -0.0026344568 0.6506607 -0.3160043 -0.43682948 0.84163195 -0.7115391 -0.022948708 0.2091798 0.2845648 0.09990863 -0.43942693 0.336498 0.55991507 -0.7113574 -0.69413584 0.07543547 0.1771395
WTA -0.39998877 0.020007784 -0.41166317 -0.13177039 0.42614755 0.77264255 0.61339736 -0.0022086771 0.21616818 -0.35774037 0.45657176 0.5737071 0.9035689 0.55188 0.51190025 0.61664885 0.49988928 0.25130266 -0.47943464 -0.20847364 0.17873318 -1.0966291 0.8638891 -0.47042415 -0.4824784 0.8014099 0.08108251 0.77406186 0.6549173 -0.14478189 -0.13468847 -0.15519065 0.059541274 0.2128833 -0.46923828 -0.6307457 -0.4792956 0.5092582 -0.26849115 0.09334973 -1.1863713 -0.7921477 -0.4333417 0.43874785 -0.17715637 -0.79139644 -0.5534435 -0.05204349 0.5371135 -0.7483154 -0.27692676 0.0013322161 -0.2579569 0.20370197 0.0022163645 -0.18289696 -0.8790069 -0.2466774 0.082677566 0.014000432 0.8204351 -0.23332675 0.48318118 -0.33343962 -0.3252999 0.3625163 1.4035145 -0.29854813 -0.3348398 0.4750567 0.0066916826 -0.1882916 -0.32938683 -0.019185591 -0.37027562 0.36845258 -0.2732635 0.20837007 0.30203745 0.3541332 0.15466432 -0.22834368 -0.6719453 -0.74669516 0.69799304 0.42076996 0.41322017 -0.20921847 -0.11455421 0.08912982 0.64153767 -0.37099454 -0.6553349 -0.6615805 1.0425501 -0.17854947 -1.1534542 -0.113850296 -0.20163749 -0.18566564
FDS -0.67110807 0.021810891 0.5873555 -0.42776653 -0.8773473 -0.8567908 0.4079384 0.1947606 -0.2911782 0.3435821 0.13688523 0.5993079 -0.046718806 0.17100619 0.4712216 0.865003 0.096536934 0.15867649 0.42701337 0.25102168 0.11620496 0.3767701 0.017980298 0.2665087 -0.20397079 -0.31170192 0.34107843 -0.0029396785 -0.28447434 -0.5425111 0.06484602 -0.22071025 0.57363695 -0.16464402 -0.0031677673 -0.01875249 -0.25810188 -0.2583614 -0.014460646 0.39278877 -0.028245447 -0.74746877 -0.3458105 0.5289483 0.59592354 0.071354255 0.082007974 -0.19780497 0.8055372 -0.9562082 -0.89790964 0.20766997 -0.529983 0.36134776 0.43999308 -0.1286735 -0.5729415 0.044051126 -0.28313255 0.52000034 -0.0049044313 -0.69812614 0.3026111 0.067104444 0.4822775 0.09076704 0.04112905 0.7053757 0.66471684 -0.038740896 1.0488417 0.33663812 -0.13989095 -0.54142445 0.26875925 0.047843885 0.05865957 0.37200198 -0.23434609 -0.29261887 -0.83692366 -0.0202959 0.03965027 -0.2920116 0.50208163 -0.2787437 0.13851358 -0.011084921 0.32198867 0.11212849 0.15143612 0.7536379 -0.9788126 0.37011948 -0.84096146 -0.2811128 -0.08903873 -0.6973527 -0.36440143 -0.2723204
YVD -0.1057215 0.05344303 0.15961328 -0.4136851 -0.9813974 -0.84052837 0.43818313 -0.004169535 -0.117258705 0.2576048 -0.07356318 0.89381146 -0.69271445 0.004057163 0.6875012 0.17576084 0.33074424 0.10808609 -0.107112914 0.24852958 -0.19507392 0.1825726 0.45425233 0.008833435 -0.19757628 -0.22013311 0.5841261 0.29003376 0.28965873 -0.5407752 -0.48702747 -1.0956253 0.60721457 -0.27454123 -0.41635132 -0.042201787 0.07364833 -0.059863444 -0.17907837 0.53595525 -0.18181574 -0.7745998 0.18526267 0.30441713 0.2171511 -0.10362017 -0.3231221 0.0075980374 1.1170294 -0.97032475 -0.56651384 -0.27620012 -0.58437806 0.3915059 0.655741 -0.11723267 -0.9876498 -0.05213757 -0.50795716 0.30600291 -0.58024436 -0.4525066 -0.25181895 0.25516626 0.56643265 -0.42533916 0.019406263 0.85248953 0.20215721 0.12832448 0.8178492 0.42388538 -0.5627874 -0.3979376 0.16017087 -0.31957442 0.033184726 0.2061994 -0.2079612 -0.3331285 -0.5058737 0.38931942 0.38660097 -0.19896339 0.04138618 -0.32035345 0.0005553849 -0.2117521 -0.30015266 -0.021049064 -0.112934396 0.5935668 -0.58752555 -0.16441113 -0.41339776 -0.2732251 -0.14978099 -0.9979935 0.28389367 -0.09696483
NGK -0.57821745 -0.51126957 0.12543707 -0.15564273 -0.24713863 0.5478768 0.74646634 0.066037245 -0.48041373 -0.31499928 0.54454756 0.5835364 -0.0817876 -0.27784163 0.03343232 0.38032287 0.69129544 -0.30373445 0.21465036 -0.24330586 0.13271059 -0.3427086 -0.8500554 -0.118555374 -0.52923423 -0.1000768 0.8212528 1.0888996 -0.58250177 -0.8534123 0.09602199 -0.3614531 0.23527019 0.071656585 -0.37793168 -0.16038758 -0.90334284 -0.30925965 -1.0866729 -0.34954157 -0.5317072 -0.07029369 -0.5475527 0.56767625 0.26348406 -0.03437979 -0.1653597 0.13330765 0.46619192 0.043039914 -0.30086574 -0.68634737 -0.2354487 0.69681287 -0.14067914 0.36044884 -0.111576036 -0.42659485 0.36502257 -0.12251902 0.596498 0.17983617 -0.11479944 -0.87946576 0.01350899 0.072305776 0.23911166 0.60567737 -0.36209548 0.23484887 0.5964788 0.045559682 0.008721732 0.07010696 0.121200405 1.1823047 0.53933454 0.4204726 -0.19394769 -0.14026235 -0.46389648 -0.49791735 -0.5189363 -0.07862671 0.5420822 -0.32797402 -0.8864978 0.036295686 0.88217545 -0.6830166 0.15001075 -0.32424465 -1.0010327 0.03279626 -0.27185413 -0.27681032 -0.016142992 0.35306326 -0.2304719 0.50644314
VGY -0.8639687 0.29014248 0.07240974 0.55835396 -0.34635413 0.0025991383 -0.0197473 -0.4465496 -0.07209752 -0.39452568 -0.12166016 0.2620142 -0.038622305 -1.1128322 0.28167164 0.4823113 0.26017937 0.17935741 0.433235 0.07646761 0.71499884 -0.85231364 0.2899536 0.3644651 0.023767801 0.25795797 0.7909312 0.73974746 0.6564556 -0.5359634 0.013106738 -0.13272935 0.38335618 -0.027236123 -0.0038741948 -1.0612413 -0.42785576 -0.26706198 -0.26896918 1.0296949 -0.5599417 -0.7717405 0.27307683 0.35679755 0.25519526 0.21023959 -0.76335245 -0.12614988 0.39198518 0.14850749 0.12497783 0.28174657 -0.23884526 -0.001666351 0.16976759 -0.3252639 -0.22931868 0.5442051 0.23427296 -0.29885614 -0.030106707 -0.75277174 0.007977038 0.40426546 0.08607652 0.275803 -0.6532254 -0.2166303 -0.16045487 -0.15596208 -0.17564525 0.29914618 -0.11234427 -0.29093558 -0.6993694 0.4314125 0.14509112 0.6567999 0.0067541115 -0.31490222 0.093033485 -0.20850001 -0.22945756 -0.023126252 0.69500154 0.39840215 0.3815076 -0.2277035 0.32652256 -0.19455747 0.8837676 0.20939974 -0.3618293 -0.82569975 0.5657753 0.23691346 -0.69356555 -0.3738552 0.19047461 -0.24507388
AEQ -0.2877067 -0.2667392 0.54059035 -0.4324373 -0.27409852 0.0065440396 1.1481045 -0.021987852 -0.36817235 0.24238414 -0.13097611 0.99789816 0.25765222 0.0072825043 0.99730945 0.27539703 0.680901 0.19986373 0.53765225 -0.03155893 0.4702507 0.04962794 -0.70725614 0.28337663 -0.17237197 0.4612395 0.8261196 1.0506012 -0.50430834 -0.8354174 -0.48609623 -0.21850616 -0.3295322 0.00953673 -0.12659505 0.22959799 -0.7789687 0.09976481 -0.80499196 0.16555402 0.01033246 -0.6900171 -0.3065173 1.0233226 -0.34191588 0.69757336 0.019323459 0.2557798 0.43411833 -0.2884478 -0.13059354 -0.7519507 0.029126948 0.6769725 -0.051211003 -0.11062474 -0.7968862 -0.674997 -0.041551314 -0.6378718 0.40204102 -0.1464492 -0.08804852 -0.38236296 -0.32653174 -0.24157934 0.14502896 0.79417557 0.2658032 -0.2686868 0.35309005 -0.5238325 0.56133777 -0.3630538 -0.46118376 0.7294288 0.6543032 -0.0018686526 -0.37051994 -0.15643221 -1.2319477 0.093864605 -0.6331268 -0.66508657 0.55951554 -0.16307779 -0.025111476 0.019256437 0.72441596 -0.182995 0.020424007 -0.5706538 -0.44366348 0.015223666 -0.05061559 -0.28795642 0.42685458 0.15766862 -0.08271367 0.55711263
AYD -0.22562288 0.23143026 -0.07583425 -1.172511 -0.93480295 0.06701578 0.7210012 -0.19061567 -0.48164037 -0.43556103 -0.36389595 0.9287976 0.30235165 0.054609317 0.74247986 0.62470955 0.526117 0.6431725 0.28682232 -0.56828517 -0.16731967 -0.07431893 -0.35220388 -0.21365523 0.5200152 -0.89955336 1.1351995 0.50061005 0.1805989 0.14564078 -0.9071 -0.25918335 0.40483886 0.22795795 -0.23683321 0.010866751 -0.74525243 -0.21609744 -0.9018688 0.5021057 -0.4376983 -0.17963305 0.2429884 0.5984671 0.6470988 0.3367026 -0.60162604 -0.45638964 0.007097115 -0.31466788 -0.18336548 -0.92761606 0.0798358 0.18321337 0.25778398 0.63323814 -0.34024537 -0.20305152 0.26408857 -0.46245706 0.04366121 -0.470718 -0.45301503 -0.17702366 0.10635027 -0.51922476 0.123665914 0.9970801 0.28080532 -0.4835881 -0.24857837 0.13001595 0.49930936 -0.1822342 0.20997371 0.35799107 -0.061469033 0.5490294 -0.182815 0.17265506 -1.278048 0.099980175 -0.60780823 0.65415543 0.33559158 -0.2719727 -0.19120173 -0.047585532 0.05700727 -0.27876288 0.4566554 0.044521984 -0.50775665 0.0019068305 -0.31146437 -0.33331266 -0.7624821 -0.092242114 0.07316427 0.40147886
SHS 0.03516382 -0.45084438 -0.58029693 -0.29816532 0.15853134 0.07339238 0.5670782 -0.15708062 0.39546773 0.03056221 -0.7617222 0.8661695 -0.101448774 0.1697888 -0.08102067 0.4622323 0.3371759 -0.5943588 0.124273576 -0.7892346 0.071381815 -0.4639932 0.07415073 -0.46106276 -0.64113027 0.4098129 0.212608 0.4514518 0.39422688 -0.22786959 -0.7759714 -0.11308281 0.044027917 -0.39158946 -0.0016959311 -0.25763988 -0.6945823 -0.26613063 0.027776165 0.29817092 0.13595647 -0.63162744 -0.6071934 -0.20094825 0.6242119 -0.72940063 -0.5758688 0.15616369 0.7075137 -0.52574205 0.04150773 0.22326683 0.4579537 -0.084629685 -0.12976784 1.131707 0.67559123 -0.60613376 -0.1741477 0.07631006 0.3677439 -0.7597949 0.2760489 1.1265951 0.8516686 0.36372644 -0.041489255 0.09053162 -0.3033544 -0.6089881 0.57016355 -0.10485198 0.090156265 -0.46530712 -0.17648503 0.72640294 0.32807845 0.015929334 0.101839945 -0.023089575 0.29012293 -0.32141164 0.25090322 0.059761804 -0.48199436 -0.84428823 -0.9365812 0.6721826 -0.096136324 0.40232688 0.75734943 0.01829918 -0.25009182 0.28278515 0.33473745 0.13560596 -0.16499914 -0.6465882 0.80736995 -0.39158192
QSE -0.33309427 -0.109042235 0.01857464 -1.3405534 -0.2772136 0.10925342 0.12323392 -0.011032927 -0.6345155 -0.4519221 0.07487005 1.1105797 -0.28995782 0.49571797 0.8263362 0.17926233 0.22082402 -0.008821398 -0.25130895 -0.13490911 -0.1268322 0.07157483 -0.15667817 -0.0061223786 0.12873271 -0.6643093 -0.24519503 0.18890834 -0.12871566 -1.0804197 0.09751885 -0.56332856 1.3205119 0.22299139 0.04059888 0.25905305 -0.64479184 -0.3784253 -0.2669406 0.543241 -0.57594097 -0.036254175 -0.20297447 0.33815637 -0.06909284 0.106764235 -0.2043883 -0.5332462 0.23986915 -0.29641333 0.3996774 -0.15675677 -0.37897328 0.54882336 -0.0016310121 0.5425537 -0.57740057 -0.31848708 -0.38809904 -0.38759106 0.43941727 -0.48505118 -0.30323082 -0.23235667 -0.03620188 -0.6354483 -0.06296495 1.094047 0.95382345 -0.32032666 0.33390298 0.74416226 0.38190076 -0.51237357 0.09548124 0.7015561 -0.03195489 -0.011270402 -0.28489557 0.09005367 -0.889314 0.4232918 0.26473877 0.39915442 0.6687865 -0.06815318 0.08609698 0.29710755 0.094533004 -0.7363978 0.15245022 0.076150745 -0.62262654 0.10154526 -0.78651875 -0.5486128 -0.008431137 -0.8643241 -0.020041957 0.41305032
AAD -0.09355985 -0.5007631 0.027313791 -0.22247282 -0.8951127 0.10154632 0.88034564 -0.25609976 -0.7940338 0.31945935 -0.26001903 0.81035966 0.18203862 0.33895728 0.7955957 0.23280536 0.9878503 -0.13533145 -0.17582266 0.07592903 -0.29316956 0.2093942 -0.4261321 0.11646745 0.58666444 0.06642707 0.7700006 0.8486944 0.17129064 -0.7021863 -0.5895043 -0.71 0.747327 0.5409221 -0.15454713 -0.31715345 -0.90948385 -0.13911673 -0.5090958 -0.007831416 -0.6201353 -0.63148725 -0.27128145 0.0796135 0.26676536 0.14942543 -0.33488104 -0.12923159 0.92498744 -0.08465984 0.09067731 -0.35848135 0.28480184 0.9426756 0.36877418 0.21571873 -0.78394896 -0.6403373 0.306711 -0.45410255 0.07385469 -0.0570917 -0.012351427 -0.4206812 0.10672381 -0.7266678 -0.1378566 1.3012452 -0.26283726 0.023923885 0.343927 -0.26657066 0.25870392 -0.7030775 -0.20231223 0.56913954 0.19981213 1.077131 -0.5934687 0.31781116 -0.4331697 0.75139904 -0.68629944 -0.021835819 -0.16736616 -0.7545946 -0.24533175 0.45754316 0.6303054 -0.1483633 0.14725095 -0.78190076 -0.26281044 -0.1518837 0.4061085 -0.3636408 -0.09191967 0.25582695 0.33403808 0.420419
HSM -0.7204301 0.17049478 -0.3604963 -0.3054329 -1.0282884 -0.4875755 0.6878455 -0.16437107 -0.60015994 0.38822955 -0.24003497 0.77262956 -0.42241058 -0.3884362 0.026198277 0.2551073 0.27142537 0.334633 -0.86684203 0.17896242 -0.29636633 0.35677436 0.7262383 -0.29882962 0.29041278 -0.38430288 0.26896843 -0.30297214 -0.28222707 -0.86037064 0.16087331 -0.53320175 0.4784153 -0.11947241 -0.15203206 -0.4281344 -0.29978934 -0.6495763 0.122631215 0.9627534 0.103692114 -0.5861045 0.2442285 -0.33016354 0.6992007 -0.39202514 -0.23478149 0.1459334 0.0664735 -0.6167983 -0.1477769 0.33004415 -0.69271576 -0.32237393 0.6028622 0.14136443 -0.53719586 -0.11563738 0.13759679 0.3828005 -0.29078847 -0.9195037 0.1769527 0.28683195 1.0662222 -0.21130723 -0.0070607103 0.6416994 0.44408932 -0.38088325 0.3291128 0.2619078 -0.81205946 -0.77215856 0.1296074 -0.0046236315 0.37435076 0.19541371 -0.058900986 0.28455845 -0.7406245 0.46262562 0.27737406 -0.13454922 0.38443583 -0.23091434 -0.069669954 0.28239396 0.26969942 -0.20559919 0.021326995 0.5015552 -0.83486736 -0.19619487 -0.49044022 -0.383763 -0.38590172 -1.0420573 0.2431187 -0.367831
SWT 0.093217336 -0.5756995 0.36862925 -0.5825124 -1.1924901 0.007928621 1.019338 -0.20547213 -1.0817175 0.13286777 -0.17403255 0.81248605 1.0144284 0.3189945 0.8735761 0.62343645 0.8571108 0.3816902 0.19227432 -0.50350344 -0.00025374856 -0.014869975 -0.9802159 0.54720324 0.31934673 -0.5213035 0.75293267 0.45236307 -0.046116486 -0.10612335 0.2440502 -0.04714823 0.23193967 0.18784878 0.046598535 -0.1439268 -0.41680777 -0.32126743 -0.8735598 0.22957158 -0.58118135 -0.53175056 -0.24481165 0.4018156 0.11727363 0.32548726 -0.12027867 -0.55288965 0.26806706 0.23758887 0.32369617 -0.08405456 -0.11743326 0.8093847 0.034537937 0.503924 -1.03452 -0.6764498 0.7273829 -0.49780428 -0.13112624 0.073575735 0.15365988 -0.1160563 0.43105066 -0.19098957 -0.16652384 0.8169768 -0.114339285 -0.039241724 0.5627712 -0.27172014 -0.12488207 -0.6000589 0.06534711 0.51934034 0.75538415 0.37146083 -0.18120931 0.32790434 -0.97440195 0.5918337 -0.6850805 -0.19827889 0.2571678 -0.45560357 -0.22512993 1.0814302 0.7856791 -0.36736125 -0.32694685 -0.29304114 -0.15057911 0.06805918 -0.16837536 -0.17890866 -0.18610391 -0.23711325 -0.07411719 -0.16295846
YIA -0.12212807 -0.051328346 0.46000066 -1.2936283 -1.1154058 -0.13377267 0.98392385 -0.15926786 -0.5256331 0.09060975 -0.056810476 0.72877973 0.5565186 0.44016686 0.8277968 1.0962486 0.4647406 0.038933072 -0.13435815 -0.020092204 -0.24385768 0.20758697 -0.46481052 0.6776414 0.34061912 -0.11599293 0.53646713 0.18643457 0.114085056 0.1370085 0.15637176 -0.1712592 0.2091249 0.51987183 -0.24778427 -0.04499915 -0.83574325 -0.4663189 -0.6428957 0.53347784 -0.722195 -0.46944422 -0.08851932 0.34818146 0.33282742 0.3384463 -0.46543798 -0.2966186 0.7156118 0.37321046 0.18290095 -0.48374078 0.2287689 0.72758615 0.28405997 0.7179522 -0.6434831 -0.13539903 -0.7044127 -0.84004855 0.33053535 -0.2795976 -0.11011093 -0.8342512 0.40557066 -0.28032914 -0.29274666 0.91425174 0.034163296 -0.77432853 0.6547478 0.1175777 0.52558726 -0.35050258 0.052873414 0.40747932 0.015960827 0.7865087 -0.3127701 -0.14564158 -0.6411568 -0.048776954 -0.5641931 -0.27612126 0.038584363 -0.31918406 -0.45098478 0.08417904 0.25983226 -0.08653331 0.21014787 -0.22047527 -0.3889381 0.5678221 -0.020786794 -0.34407365 -0.6491507 0.16525486 0.07959021 0.28868178
EQE -0.20614326 0.024032388 0.055517543 -0.14530802 0.08849162 -0.18883069 0.5792145 0.2630478 0.22500312 -0.4874726 -1.0381465 0.61924106 0.0023728632 0.13132808 -0.38937718 0.26836967 0.41175464 -0.8718665 -0.4797682 -0.79143816 0.5743438 -0.54209393 -0.2756766 0.17389664 -0.21383941 0.3159332 0.32318532 0.75566876 -0.15563247 -0.5502376 -0.34788054 -0.8768129 -0.110747814 -0.25687337 -0.55737466 0.31504142 -0.68033904 0.3156377 -0.7646426 -0.17898509 0.08782208 -0.30455726 -0.06789799 0.36615092 0.71916723 -0.31862068 -0.6192872 -0.1749036 -0.14780056 -0.21945158 0.56872725 0.703929 0.2533439 -0.38276547 0.00046327984 0.8304348 0.09287094 -0.1911895 0.29630372 0.16520642 0.7716171 -0.8613632 0.113143936 0.23206414 0.43314272 -0.006446234 -0.6031941 -0.066891335 0.055530526 0.06433936 0.22898076 -0.3541138 0.28609973 -0.09650281 -0.49281874 0.30017734 0.38462025 0.42261913 -0.39206114 -0.1628576 0.5127341 -0.42181188 0.049155388 -0.28899154 0.08144897 -0.5274677 0.20378613 1.065813 -0.77630496 -0.7218105 -0.29195514 0.45348182 -0.07836123 -0.084701605 0.042311687 0.37115416 -0.24542469 -1.0222025 0.26534247 0.19433501
YDG -0.31749994 -0.00809893 -0.42090574 -0.38159603 -0.009902313 0.38011456 0.06759979 0.24183396 0.10989495 -0.87218934 0.06966439 0.2826809 0.4717145 0.6800649 -0.35920528 0.4787076 0.03463551 0.40745667 -1.1669774 -0.114619784 0.027562346 -0.5047529 0.058198776 -0.3799981 -0.3415133 0.72673225 0.25574425 0.3330403 0.805188 -0.04438909 0.012535778 0.6688666 -0.29050663 0.042508468 0.27005973 -0.19866712 -0.64505607 0.39299738 0.047192942 0.32900688 -1.3573852 -0.8399632 -0.2483139 -0.070662685 -0.28211653 -0.007399274 -0.7171594 -0.5405298 0.82342446 -0.18005942 -0.11258015 -0.68862003 -0.59747165 0.46326545 -0.41552576 -0.15441932 -0.78350675 0.3178213 -0.31145415 -0.37569657 0.13545726 0.1708844 0.26592618 0.46452957 -0.1259348 0.081852555 0.93386286 0.22689135 -0.113602445 0.7688678 0.09246529 0.1023268 -0.11113627 -0.4708515 -0.9131157 0.73235685 -0.26347053 0.07733302 0.47156003 0.021123996 -0.24605972 -0.34256425 -0.37906083 0.04293489 1.0047969 0.45352194 0.9993069 -0.056623396 -0.028050154 -0.7732428 0.42981997 -0.33713204 -1.1253551 -0.82201374 0.3596872 -0.0042119864 -0.5951796 -0.90907866 -0.41395527 -0.057172712
KDY -0.10678293 -0.015589216 0.0065051243 -0.29007986 0.076359265 0.3051295 1.2014508 0.2797122 0.5315514 -0.45894694 -0.4576883 0.66083753 0.80765563 0.45536453 0.20304526 0.2578256 0.8682805 0.51886696 -0.571509 -0.32918206 0.73524934 -0.5866836 0.55337685 -0.4145763 -0.3647578 0.43902445 -0.0088870255 0.7804944 0.5080156 0.19332393 0.06892993 0.46077517 -0.23562506 -0.27278948 -0.017197542 -0.011026717 -0.259862 -0.17734015 -0.2672817 0.50579643 -1.4951477 -0.92930853 -0.25282183 0.056208692 -0.38097727 -0.36853915 -0.5391976 -0.635206 0.84206706 -0.7259679 -0.33327225 -0.75510466 -0.22198354 0.27973565 -0.13055757 -0.6866359 -0.7539511 0.11917493 -0.17779443 -0.6945082 -0.27976462 0.6055609 0.5819251 0.20351651 -0.1148454 -0.058535773 0.8507201 0.3334592 -0.17398423 0.60338646 -0.40555784 0.14732736 -0.049514234 -0.3211371 -0.82752275 0.10608287 -0.81153643 0.8874035 0.2202356 -0.27098426 -0.35370806 -0.40305963 -0.53174895 -0.33677763 0.66761184 -0.10543608 0.72890496 -0.49532858 -0.15767747 -0.5434584 0.17781024 -0.37506133 -0.7984922 -0.6890337 0.8310799 0.38106936 -0.88340324 0.072415255 -0.6295904 -0.0014847502
NQS 0.17555708 -0.5548047 -0.31114712 -0.20016065 -0.60727173 0.047833666 -0.0035839113 -0.30893615 -0.16912426 -0.31597498 -0.18526112 0.64798933 -0.1471064 0.23899288 0.3496797 -0.4907196 0.28343028 -0.6575915 -0.35703072 -0.26262012 0.07473098 -0.59277624 -0.13293003 -0.33889467 -0.096990034 -0.01997748 -0.10702624 0.5243074 -0.43742427 -0.9386935 0.19595346 -0.30220765 -0.07828649 -0.92315096 -0.5140647 0.6999292 -0.26662198 0.14694236 -0.33170918 -0.09706047 -0.73497605 -1.2158138 -0.36176676 -0.1487261 0.46905747 -0.18492499 -0.68302864 -0.7849145 -0.19041404 0.11074928 0.92591596 0.34635672 -0.7627835 0.07304525 -0.08774496 0.9986434 -0.2382268 -0.08562988 -0.46287107 -0.18979156 0.7948899 -0.6293434 0.2857129 0.7210105 1.1036305 -0.094295055 -0.58269244 -0.1580308 0.6042183 -0.036411915 -0.010493912 -0.501751 0.4017783 -0.5051333 -0.38104534 0.1785901 -0.032443542 0.13073464 0.2505669 0.0032713371 0.83498687 -0.14722191 -0.20960912 -0.3693573 0.23249052 0.44026473 -0.9699507 0.42699474 -0.7188514 -0.50038254 0.4589989 0.34887308 -0.2633661 0.23851137 0.36956352 0.07484436 -0.24063481 -0.30625537 -3.5330773e-05 0.269201
DSD -0.7563219 0.06561911 0.033828475 0.15913351 -0.12777913 -0.13089709 -0.4102958 -0.08883326 0.037778765 -0.47392297 -0.000806814 0.3234247 0.45067608 -0.33213556 0.31199437 0.65576637 0.42124292 0.48840412 0.49779692 0.28715116 0.8930727 -0.63211924 -0.0733989 -0.0018171506 -0.2275257 0.19327621 0.67303556 0.37403172 0.24497816 -0.18663988 0.13388039 -0.21442391 0.12249344 0.03002169 0.19112712 -0.7586941 0.22596142 -0.04377544 -0.24522448 0.1993446 -1.1496445 -0.8347643 0.4313406 0.30863458 0.6957037 0.2344159 -0.61941075 -0.7181436 0.58645153 0.36242187 -0.49606913 0.12463648 0.57191944 0.21591546 0.042075176 -0.27184632 0.093408346 0.084088765 0.025253993 0.031058498 0.0616453 -0.7665878 0.47415206 0.1312014 0.27936015 0.46542373 -0.6507858 -0.08697511 -0.0291287 0.09645152 -0.06728299 0.01230736 0.15113509 -0.11585173 -0.9972742 0.06731563 0.36856952 1.2072977 -0.23982844 -0.39967364 0.31318 -0.13840061 -0.1763489 0.28854758 0.09735945 -0.11904969 0.7041462 -0.10723446 0.06777955 -0.94461966 0.93245673 -0.046900865 -0.47083053 -0.2579665 0.22070445 -0.1526146 -0.9814722 -0.32841176 0.14426301 -0.7586554
GCD -0.8869063 0.06655327 -0.21964334 -0.29141408 0.21805273 0.55776966 -0.49027818 -0.2645702 0.6296217 -0.92441064 0.0071815345 0.9893029 0.7674944 0.2684133 -0.18012778 0.5296272 0.4525657 0.3428966 -0.14125943 -0.47015655 0.35995156 -0.7157474 0.4357867 -0.102330476 -0.4838229 0.92989486 0.47548354 0.7796998 0.054837536 0.06788866 0.6416378 0.19844082 0.40353376 -0.12400195 0.35843617 0.27276963 -0.4164877 -0.5252902 0.055297073 0.706864 -1.3406627 -1.173692 0.4281038 -0.23593375 -0.31679785 0.022771062 -0.20005192 0.20938937 1.0603492 -0.37011448 0.35735956 -0.695295 -0.20850275 -0.12414447 0.08296641 -0.80832535 -0.29504576 0.033585522 -0.11989281 0.009986177 -0.17003603 -0.09008954 0.5659024 -0.22808047 0.11128477 0.539667 0.35826734 0.41346344 0.23014674 0.72525436 0.044015888 -0.6557927 -0.0033605024 -0.08394831 -0.8482881 0.44758293 -0.4184764 0.14111361 -0.059722774 -0.0031162656 -0.07685606 -0.014497354 0.61120933 -0.140749 0.46161747 -0.13924265 0.5665451 0.21634017 -0.33049843 -0.05408952 0.16190796 -0.22247916 -0.5895614 -0.6520309 0.49084678 -0.5795029 0.04081098 -0.86132264 -0.40477076 -0.15138263
AAQ -0.5878486 0.02035546 -0.0023163836 -0.40422535 0.22552814 1.0237669 0.52826005 -0.10107881 0.39620563 -0.7429201 0.38910484 0.5903038 0.9404149 0.58979785 0.15073325 0.010609274 0.49783486 0.31656605 -0.43489808 0.13275419 -0.33381927 -1.1504657 0.3776185 -0.4136246 -0.47234073 0.14249218 -0.37684116 1.172385 0.21498911 -0.6073928 0.16485424 -0.011293049 -0.62696105 -0.1813392 -0.063063405 0.07886996 -0.44569668 0.20329615 -0.36382172 0.30536282 -1.3692491 -0.5139722 -0.39148855 0.06559087 0.08636849 -0.49524665 -0.5117392 -0.65374565 0.47903755 -0.59176826 -0.28200832 0.17634918 -0.6522008 0.68653727 0.33710515 -0.47216165 -0.1544121 -0.17124282 -0.09483494 -0.106079824 0.109883524 0.20003329 0.53651786 -0.43566614 -0.20874825 0.19029489 0.21957618 0.31781077 0.02617332 0.34244812 -0.24408448 -0.159118 -0.776889 -0.4492129 0.36057344 0.57576823 -0.2402997 0.30739358 0.76012105 -0.6004838 0.20770015 -0.051875275 -1.0292277 -0.47230607 0.78273064 0.61149687 -0.005311902 -0.46127647 0.035166338 0.23164067 0.76829517 0.104192406 -0.8273623 -0.45610756 0.8823223 -0.12813947 -0.9622462 -0.57792807 -0.890933 -0.58548045
DGK -0.24379909 -0.22553715 -0.27701068 0.06376157 0.31844363 -0.65422535 -0.41166332 -0.09665942 0.4069367 -0.29822886 0.0017261098 0.86327404 0.02338268 0.34338844 0.14472713 0.5943071 0.18557563 -0.88878083 0.105673596 -0.86333627 -0.09679728 0.2931787 -0.15817554 -0.1700913 0.023808155 0.14696236 -0.35178584 0.24022706 -0.3853879 -0.7827031 -0.6689866 -0.62648845 -0.32860827 -0.7702279 -0.393704 -0.09858157 -0.38498664 -0.41555908 0.007731286 0.01273033 -0.7754559 -0.7381868 -0.89812124 0.46345845 1.0707681 0.35793513 -0.09477813 0.17437729 0.12126409 -0.39575276 0.17164402 0.4055947 -0.74576104 -0.106141925 0.3781785 0.597898 0.16340719 0.2837574 -0.07923626 -0.035994705 0.6455937 -0.48902968 0.10729281 0.3148642 0.6451694 -0.6615918 0.37359127 0.07044082 0.13741477 -0.5946254 0.050239578 -0.2526201 0.1363807 -0.3104614 -0.9925071 0.12862934 -0.739288 -1.039795 -0.09355699 -0.49781004 0.43647262 -0.3988968 -0.8413236 0.049338233 0.55701345 -0.15163091 -0.3984809 0.5945372 -0.6644311 -0.72959 0.640259 0.36020634 -0.6748612 0.7341156 0.09395122 -0.3357434 0.10049016 0.20559841 0.08053914 0.30743158
SDA 0.027126692 0.19600523 -0.657901 0.19725637 -0.2410527 -0.4545741 0.7154224 -0.24131992 0.012962835 -0.29728138 -1.1470159 0.9189715 0.12997282 0.16148353 0.26859456 0.312369 0.046472393 -0.97885126 0.0040850895 -0.52666634 0.28449512 -0.6472894 -0.09135231 -0.13324066 -0.3343551 0.66822356 -0.030066252 0.3340523 0.18489708 -0.39747658 0.09192146 -0.702427 -0.2013671 -0.24774368 -0.17516457 0.6532561 -0.5875499 -0.05882137 -0.1888012 -0.18037868 0.009787324 -0.10688199 -0.4963935 0.30275166 0.72650087 -0.6783926 -0.6588686 -0.24823183 -0.04166809 -0.45260194 0.3604818 -0.14981267 -0.26248148 -0.276109 0.38935977 0.6511996 0.08484178 -0.4126567 0.33803815 0.57773286 1.1124638 -0.79561645 -0.012310143 0.64927346 0.5431806 0.11065423 -0.32228518 0.23359221 0.22738446 -0.18211843 0.6673712 -0.5883707 -0.009730947 -0.36660996 -0.18736209 0.13300991 0.34979007 -0.18391319 -0.019214137 0.0852646 0.13502972 -0.37374076 0.15621383 -0.2656263 0.45182046 -0.55515224 -0.038102612 0.34423536 -0.5588229 0.45958593 0.061870553 -0.0892744 -0.3039317 0.057885844 0.44833928 0.09103318 -0.8475161 -1.0409911 0.5218389 0.07481831
DYI -0.13678502 0.16987607 -0.24007522 -0.43524364 0.026849998 -0.5527107 0.30125704 -0.23683141 0.11263466 -0.43895832 -0.5463691 0.5795713 0.103594065 0.6078555 0.25552526 0.35555965 -0.23776115 -0.4514721 0.07368283 -0.52420443 -0.4230337 -0.44913554 -0.12998137 -0.5521117 -0.054289214 0.040557854 -0.056008484 0.30074695 -0.6508284 -0.8493501 -0.39988384 -0.37473503 -0.16459368 -0.7575832 -0.64070535 0.45616695 0.1470763 0.09103877 0.014235137 0.0075680846 -1.0074061 -0.294333 -0.81449604 0.9884529 1.1194999 0.54384744 -0.48728186 0.044291295 0.16945757 0.104034886 -0.12326546 0.2733765 -0.944169 0.042410806 0.4292962 -0.09751629 -0.20816065 0.59114575 -0.33852234 0.7919135 1.092193 -0.37327418 -0.22353008 0.68750924 0.31674144 -0.7938891 -0.2094577 -0.11357127 0.22147295 -0.41498086 -0.088528775 -0.54033005 0.6291798 -0.422131 -0.16705647 0.13549551 -0.42140397 -0.08650392 0.41975394 -0.356595 0.062437676 -0.37445024 -1.1002059 -0.014941356 0.55775315 -0.17538054 0.28145185 0.60788345 -0.72478795 -0.72420305 0.24318063 0.13733324 -0.83459806 0.48025045 -0.21649523 -0.8436222 0.44438076 0.16391736 -0.343063 0.45457262
GYV 0.0153298 -0.17827421 -0.7019447 -0.40592808 -0.5152816 0.081242114 0.7171684 -0.41550845 0.046623424 -0.3173139 -0.9121105 0.7168924 -0.32034442 0.37977657 0.07375025 0.3601075 -0.30980554 -0.98139787 0.08888551 -0.9703833 0.28943253 -0.7945446 -0.11908074 -0.055596154 -0.18703555 0.5503659 0.62859714 0.4764701 0.23271862 -0.15138786 -0.03413618 -0.06911065 -0.63060087 -0.46897414 -0.38105804 0.06710008 -0.4575645 -0.12245512 -0.50576663 0.29425484 0.37816498 -0.7246104 -0.37216675 0.4226098 0.31020483 -0.8490177 -0.1593063 0.26243082 0.053199068 -0.5301562 0.27530706 -0.17256752 -0.44118303 0.0505752 -0.018809978 0.8785724 -0.0021947264 -0.1726977 0.50669897 0.14055309 0.5536222 -1.0018792 0.30034617 0.34967294 0.040569376 0.028962329 -0.19093834 -0.07279256 -0.084992886 -0.39457652 0.6350485 -0.35701934 0.09608659 -0.59701616 0.17613004 0.46852797 0.30346632 -0.5562064 0.24919944 0.16906932 0.21548013 -0.31748137 0.08609985 -0.39152154 -0.28111976 -0.45226577 -0.48559183 0.9087659 -0.28463498 0.19207092 0.1559765 0.28945318 -0.47758618 -0.26288936 0.29466608 -0.24666727 0.17774957 -1.3487879 0.15196906 -0.5180402
YYN -0.73702914 -0.20410164 0.25698844 -1.2700732 -0.5014058 0.017671976 -0.0029826965 0.011661311 -0.7801723 -0.3691811 -0.13636369 1.0760913 -0.49974325 0.46536946 0.67823464 0.38775042 0.049364112 -0.06752078 0.11311668 -0.42111075 0.1703818 0.1325642 -0.6212479 0.3814533 0.3993618 -0.2018271 0.28551692 0.48953983 -0.09343863 -0.58428776 -0.23066913 -0.75983053 0.683832 -0.05419236 0.36288154 0.16818528 -0.70710135 -0.6740446 -0.531665 0.67951393 -0.4154451 -0.5086345 0.1236242 0.26052067 0.79425704 -0.29773077 0.16928563 0.0738166 0.89554626 -0.2701632 0.25350496 -0.62603426 -0.4138778 0.19199395 -0.09149372 0.685353 -0.018532028 0.14805505 -0.27569816 -0.31383455 -0.38322517 -0.297967 0.028918888 -0.23898947 0.26953095 -0.39514756 0.5520204 0.69731975 0.27623463 -0.32116902 0.60766953 0.3154512 0.17435092 -0.48490396 -0.13962454 0.7180547 -0.04540574 -0.0052955793 -0.49757668 0.010946272 -0.7925962 0.5713505 0.37446812 0.2620521 0.5435756 -0.576996 -0.48850498 0.12040309 0.29274327 -0.3500733 0.45266786 0.47917056 -0.060123 -0.2499361 -0.73626447 0.12690148 0.09219884 -0.57091975 -0.22528538 0.109259196
LRR -0.9467633 -0.07503464 -0.21942379 -0.32592303 -0.10164675 0.46047208 0.75238043 -0.17038435 -0.6285379 -0.24111366 0.47194457 0.37437192 0.40248382 -0.2008796 1.0064179 0.033154707 0.3308487 0.08508342 0.1641978 -0.08683619 0.4411859 -0.81020427 -1.3113105 0.2590628 0.15421222 0.5091849 0.39616054 0.74751323 -0.18120617 -0.74260306 -0.48110113 -0.5286111 0.0609707 0.13095456 -0.1386311 -0.2777713 -0.25396517 -0.27601275 -1.1724917 0.62191945 -0.6913973 -0.5344317 -0.5580711 0.67677873 -0.22500068 0.23150449 0.47611952 0.25317222 0.13948995 0.13715482 0.39638388 -0.82234555 -0.098518774 0.3076102 0.16357051 0.333167 0.16393954 -0.25322986 0.08996061 -0.74641293 0.50189406 -0.02805964 -0.5316835 -0.30841035 0.099844456 -0.47187766 -0.073712036 0.61650383 -0.11176914 0.4329468 0.16757366 -0.24973834 0.41558388 0.36745915 -0.01391439 0.9211479 0.16613166 -0.026883043 -0.23981827 -0.46958387 -0.7657144 -0.09678107 -0.5196475 -0.2862961 0.6170917 -0.5631397 -0.31090555 0.22648972 1.1383804 -0.65084565 0.34652597 -0.7156597 -0.5820536 0.21037951 0.47860992 0.18137978 -0.6439103 0.116366155 0.39716643 0.5643153
HEA -0.14950588 -0.09923569 0.737255 -0.2457522 0.56458473 -0.29660505 0.42480573 1.0882668 0.6210157 -0.6373787 0.014810209 0.6941689 -0.24954243 0.044897627 -0.6319613 0.85556483 0.5012605 1.3486738 -0.78156763 0.4259031 -0.53619206 -0.2239355 0.16779307 0.45306778 -0.4797616 0.23795034 0.07555978 0.22485843 -0.6313413 -0.22232886 -0.10034205 0.075011544 -0.30878934 0.14303909 -0.4266007 -0.65624577 0.17502657 -0.9365767 -0.43238136 -0.7965295 -0.67518693 -0.73186606 -0.25371906 0.39809695 -0.2074613 -0.03401943 -0.112854816 0.3145481 0.18182945 0.37553543 -0.48515552 -0.5778281 -1.3911777 0.603267 0.35156372 -0.14127044 -0.13929294 -0.25546545 -0.6480921 0.19279563 0.30023322 -0.0663431 0.46536988 0.4240883 -0.64330775 0.7261466 -0.061134353 0.10233554 0.6062059 0.41378596 -0.14685762 -0.98196626 -0.09135632 0.69057184 -0.6215638 -0.10477216 -0.28048828 0.31186527 0.0055463174 0.48504114 0.40327772 -0.07936459 -0.6600561 -0.51874226 0.44781724 0.56409246 -0.97940457 0.8584115 -0.647632 -0.8440101 1.648362 0.21273877 -0.4829592 0.60487264 0.5846492 0.32156023 0.217729 0.4913763 -1.1340593 0.24946031
YWD -0.44027695 -0.6341477 0.4037452 -0.5234853 0.32454723 -0.28351954 0.12451667 0.290356 -0.033310406 0.030385064 -0.69484013 0.60820925 0.11884202 0.011660796 -0.24425124 0.16371073 0.31151542 -0.5331893 -0.8710713 -0.66137224 0.4192342 -0.83842754 -0.51041764 0.024501612 -0.03295914 0.8508362 0.47222403 0.62695324 -0.12316921 -0.46219394 0.0046616425 -0.65321547 -0.2811682 -0.5115801 -0.1781606 0.27338293 -0.51668406 0.20768179 -0.43954894 0.037946444 -0.06135077 -0.42800522 -0.27212137 0.5691616 1.0111208 -0.78249407 -1.0927327 -0.6922589 0.032991115 -0.7424379 0.47732565 0.21575542 -0.55066454 0.050853826 0.24646993 1.0441691 -0.3540627 -0.3765933 -0.06889012 0.5898471 0.80084455 -0.618336 0.20838618 -0.16668838 0.7068516 0.20717421 -0.8681728 -0.18822753 0.073982224 -0.010782893 0.26494944 -0.2875114 0.37300795 0.030750355 -0.21196379 0.20164742 -0.051639464 -0.2653669 -0.13809721 -0.45409003 0.4720243 -0.60035235 -0.036488533 -0.31569397 0.6640595 -0.4601005 -0.55058116 0.86663103 -1.2879398 0.60845894 -0.29766193 0.21420453 -0.4573826 -0.23398289 -0.20557643 0.1139711 -0.5024336 -0.5458594 -0.30709794 -0.13734688
PEY -0.5338097 -0.45601323 -0.12141755 -0.7928298 -0.32152927 -1.0624516 0.30213693 0.27415326 -0.28259388 0.2980099 0.70890516 0.7216539 -0.17993411 0.42002228 0.2484792 1.1824198 0.016829439 -0.0739051 -0.4117492 0.062292904 0.04161786 -0.05716316 0.66895705 -0.24273174 0.31024805 -0.55437356 0.3480038 0.12381451 0.1692023 -0.18630469 0.20059419 -0.7823502 0.678194 -0.038514815 -0.14837083 -0.43594924 -0.68178153 -0.3013971 -0.121920705 1.0508753 -0.010560776 -0.53987163 -0.06498637 0.8234564 0.39829323 -0.26794937 0.7912447 -0.11973394 0.54334503 -0.9178472 -0.45381218 -0.35585153 -0.63202804 0.5672394 0.06955083 0.79933 -0.403345 -0.806309 -0.040668916 0.22751066 -0.2883638 -0.8856575 -0.25345042 0.23915368 -0.21805277 -0.16059352 0.79620147 0.52611077 0.40798953 0.15561336 0.6303444 0.2082955 -0.16021243 -0.30182198 -0.21478756 -0.24152209 -0.40082228 0.015085907 -0.45686117 -0.31032258 -0.7633515 0.19714953 0.2582325 -0.063266456 0.100328885 -0.32362172 0.43571272 0.12439568 0.25033572 -0.30107382 0.0506547 0.2820715 -0.6537081 0.34919417 -1.0481089 -0.19856621 -0.51460886 -0.868311 -0.19596125 0.29426342
EYW -0.79667205 -0.76929224 0.29444298 0.011206203 -0.19188192 -0.23695344 -0.08206689 -0.8147126 0.105405636 0.0796248 -0.39413354 0.089308366 0.573597 0.10103709 -0.2842804 0.86721444 0.19707686 0.37184533 0.7234758 -0.6505807 0.7581943 -0.73128444 -0.25269488 -0.030559467 0.11191292 0.19562697 1.0816202 0.45513138 0.33967626 -0.21819255 0.27715877 -0.14206582 0.4187668 -0.5402311 0.14286473 -1.1249944 0.087590165 -0.64928925 -0.48046777 0.25800115 -0.65937895 -0.569263 -0.075514786 -0.27712393 0.76946366 0.22234164 -0.92528325 -0.26019245 0.7454705 0.3210002 -0.3978228 -0.008056068 -0.18795946 0.40971097 0.087085105 -0.43381062 -0.3894029 -0.012240308 0.5018515 0.1839783 -0.121666595 -0.26909962 0.5660307 -0.15030383 0.2062099 -0.076013684 -0.38317832 -0.16731587 -0.2643021 0.08757746 -0.0036558309 -0.31619832 -0.21973805 -0.4334254 -1.6041414 -0.19547285 -0.3764233 0.751999 0.08018478 -0.20434283 0.42183617 0.22244872 0.02229295 0.402512 0.1748844 0.35912487 0.28147963 -0.28683114 -0.08177247 -0.8289458 0.82021093 -0.058923382 -1.2629548 -0.96812874 0.19407478 -0.42713946 0.46909222 -0.6943172 0.41897976 -0.8797891
TFQ -0.7281376 -0.17576483 0.6096474 0.43655926 -0.15913613 0.2387423 0.33850214 0.020520372 0.82651657 -0.54929423 -0.39510536 0.05646342 -0.17633484 -0.23322216 1.0742847 -0.3598017 0.25852418 0.46773872 0.2471049 -0.18469712 0.05339702 0.52057594 -0.44723755 -0.65851057 0.12256761 0.4611973 0.36572516 -0.15048009 -0.2757728 0.17200515 0.660563 -0.13043661 -0.36387601 -0.4380905 -0.06998198 -0.16652921 -0.7628047 0.085116416 0.0529624 0.18973792 -0.81974244 -0.16635983 -1.0803517 -0.22833884 0.17603071 0.5290852 -0.3462729 0.36538738 0.8501196 0.0054306905 0.215138 -0.77580124 0.39571336 0.21934195 0.051735234 0.7469486 -0.63670945 0.054357085 0.37001497 -0.26450506 -0.376584 -0.13367341 0.2738767 -0.48939347 0.8803892 -0.16233957 -0.29003435 0.9109913 -0.61383355 -0.21556905 0.34027517 -0.7339415 -1.0342027 -0.4328625 -0.6916163 0.13527653 0.8346783 0.07121203 0.23689222 0.23056291 -0.2139119 -0.80508584 -0.3848915 -0.12796247 0.79864824 0.13253042 0.22222057 -0.7565033 0.13569668 0.12574248 0.46798453 -0.35106888 -0.6195655 0.8048461 0.30405927 -0.60351264 0.34231904 -0.2875595 0.52023244 0.4762717
RYF -0.28254065 0.103635326 0.142312 -0.43364632 -0.5692927 -0.09891707 0.91247994 0.054556087 -0.04626129 0.6768914 -0.62312114 1.0228388 -0.14487235 0.16021974 0.57783335 0.43922132 0.24597569 0.8746291 -0.40834427 0.12386519 -0.20551957 0.44687808 0.8076597 -0.26437584 0.15784459 -0.35643786 0.24014202 -0.06769808 -0.41857684 -0.8835456 0.41837552 -0.57131714 0.468133 -0.4592284 -0.14880672 0.13856095 -0.36318076 -0.39638978 0.045582265 0.9567244 0.08304502 -0.66270614 0.46316326 0.45127442 0.054760866 -0.21245055 -0.122100875 -0.1040405 0.41164106 -0.9845182 -0.18272649 0.15304984 -0.6451353 -0.547788 0.40247414 0.11371889 -0.29522544 -0.42169788 -0.07477838 0.6658407 -0.47106966 -0.8837263 0.05319952 0.5389247 0.56619704 -0.013678186 -0.2744489 0.5080268 0.28576818 -0.69787705 0.16531973 -0.002241216 -0.37715375 -0.7747433 -0.08042872 -0.7984816 0.41696325 0.2439427 -0.51242405 -0.2019469 -0.99040496 0.7523717 0.32369533 0.024691388 0.49745747 0.010652629 -0.1539361 -0.056656923 -0.053143933 0.18025789 0.15956199 0.826097 -0.6056379 -0.069660045 -0.38318247 0.15879963 -0.19545615 -0.78215766 0.25030047 -0.36948696
SMR -0.39795643 0.1310087 -0.30561164 0.31647596 -0.4765202 0.3289639 0.3815622 -0.19834855 -0.1579595 -0.40928808 -0.45989218 0.5376149 -0.3526062 -0.7236556 0.011624138 0.5138721 0.33395606 0.2898006 0.32090995 0.06891583 0.5765013 -0.9705283 0.6281362 -0.24504347 0.19949545 0.18359677 0.26466343 0.30000296 0.4625642 -0.6192821 0.42974606 -0.22203891 0.36295104 0.029028507 -0.15383004 -0.7878868 -0.061218295 -0.7629485 -0.12205621 1.2425053 -0.17341387 -1.1729729 -0.1738103 0.3295455 0.121806756 -0.08740787 -0.3431162 0.08723665 0.1605675 0.9960935 -0.459867 0.5863391 -0.37114054 0.027403763 -0.116445355 -0.4108499 0.0545074 0.46873334 0.017065607 0.18804286 -0.093744054 -0.939787 -0.11441858 -0.03620122 0.1768251 0.41562542 -0.18142597 -0.6456068 -0.27311683 -0.11394921 0.1311368 -0.3817291 0.03623829 -0.35566625 -0.54804254 1.0320034 0.4319337 1.2402576 -0.34883165 0.13559137 -0.35103872 -0.0072583198 0.033606995 -0.21998101 0.12001534 0.27040097 0.51967746 0.46144825 -0.1398053 -0.6956593 0.6446942 -0.44143125 -0.6304603 -0.48622593 -0.20852727 -0.036607493 -0.59858835 -0.26777735 0.0854955 -0.81227165
MRY 0.017647216 -0.11669204 -0.15190199 -0.57015884 -0.06618571 -0.041247096 0.7777153 -0.056910455 0.14252503 -0.056244902 -0.9088477 0.7197983 -0.2790239 0.6846505 0.1418218 0.40585792 0.21410125 -0.46345046 0.24273936 -0.524346 -0.12915847 -1.0612332 0.06688034 -0.77563435 -0.3814045 0.26440993 0.20149618 0.46648583 0.25230575 -0.10796381 -0.33183855 0.013300118 -0.005940825 -0.49985906 -0.24841844 -0.072968856 -0.1667258 0.106068075 -0.500485 -0.1498701 0.130871 -0.45959136 -0.33732888 0.51587653 0.44986367 -0.65638345 -0.83342046 -0.012581021 0.8113186 -0.19831075 -0.44096926 0.018682376 0.35587198 0.19173765 -0.07990643 0.29994288 0.29050285 -0.43888438 -0.2271556 0.7948313 1.0275222 -1.0229578 0.43083102 1.1111138 0.4065995 0.4561117 -0.19086145 0.12430811 0.16948195 -0.5075735 0.34428722 -0.40859184 0.38519418 -0.4894254 0.2595995 0.7291528 0.30164516 0.712766 0.5065066 0.13545966 -0.13904871 -0.46486306 0.21664153 -0.03341515 -0.4901373 -0.60901475 -0.55824393 0.7685122 -0.28952315 0.3433092 0.36873028 -0.13039067 -0.24570356 -0.004880882 -0.116216056 -0.050836105 0.24489634 -1.0246987 0.6529431 -0.3337543
VDD -0.85084057 0.08555201 -0.42652315 0.39821127 0.042431965 0.07716774 0.25428295 -0.10224009 -0.013782871 -0.3149178 -0.110977784 0.31257412 -0.05038878 -0.7819957 0.14398389 0.8305404 -0.21696205 0.26009852 0.31015 -0.19821727 0.98261845 -0.6166578 0.01841571 -0.0513873 0.18225826 0.40389365 0.44002846 0.36540923 0.052580345 -0.8661445 0.4232234 -0.4494709 0.39811048 -0.10239551 0.60030824 -1.0903661 -0.09732164 -0.19820543 -0.2086245 0.8891738 -1.0921692 -0.7000141 0.11175206 0.004528557 0.40188637 0.23343967 -0.5710948 -0.39435002 0.21706676 0.49708116 -0.24242605 -0.028543834 -0.070762716 -0.08604138 0.150426 0.23038666 -0.23016217 0.21715638 -0.10244512 -0.42641905 -0.46225992 -0.5163109 0.20092236 0.7563034 -0.049521923 0.2259147 -0.16234711 -0.25720176 -0.34958455 0.16708243 0.24738371 0.124700695 0.28685805 -0.39034355 -1.1817172 0.42562255 -0.020536778 0.7357375 -0.35069603 -0.2350844 0.22567333 0.010069912 -0.03857759 0.009290911 0.44878194 0.121544175 0.1549744 -0.19770658 -0.13714685 -1.1122577 0.49849254 0.18231443 -0.089349955 -0.6594811 0.046104692 0.17193079 -0.64558536 -0.32480696 -0.024632629 -0.4460057
DDT 0.28089127 -0.22225574 -0.2912149 0.05054218 -0.16314416 0.03236415 0.94645596 0.004497312 0.41200238 -0.7800503 -0.86195254 0.35298797 -0.11856276 0.017795697 -0.08902852 0.04755381 -0.42014363 -0.883407 0.17454368 -0.7233543 0.28171194 -0.6871847 0.17546137 -0.22126591 0.17664427 0.61567473 0.0915463 0.15297647 -0.13337016 -0.55047065 -0.26478666 -0.8383956 -0.045665577 -0.23910244 -0.52556354 0.09414264 -0.7763727 -0.28067872 -0.57812196 0.37611392 0.20722724 -0.28043038 -0.3795522 0.16609508 0.38581416 -0.34338593 -0.27583835 -0.1679698 0.3013128 -0.6473509 0.06649791 0.30718452 -0.39074716 0.097758904 -0.26253733 0.41046873 0.34839126 -0.4581888 0.30362883 0.658329 0.7949994 -0.98767537 0.3528911 0.4298164 0.5063547 0.53385603 0.116304964 0.18656167 0.039187513 -0.11194032 0.7469722 -0.9095792 0.61018074 -0.29215106 0.011567065 0.95669955 0.12948515 -0.42340273 0.23588452 0.11512794 0.19842163 -0.10309579 0.15088499 -0.21043977 -0.12255475 -0.6047623 -0.46835008 0.47209102 -0.7327065 0.19525419 0.26906526 0.1114427 -0.5123274 -0.453114 0.12580127 0.47900313 -0.15996778 -1.155026 0.066013865 -0.34652644
CWA -0.14612901 0.23299308 -0.11737994 -0.46295264 0.0072125793 -0.68738353 -0.014187937 1.0265969 -0.41986302 -0.17433588 0.046620727 0.3208416 0.22727717 -0.3213195 0.3457195 -0.24311563 0.79769874 0.22507443 0.18036532 0.14736526 -0.6871446 -0.30390868 0.43505415 -0.056450676 -0.7006247 -0.3139275 0.32271907 0.42989603 0.18420692 -0.54232895 -0.56715024 0.35109714 -0.20553198 -0.16498975 -1.2337135 -0.49341804 0.39941797 -0.44083717 0.2376168 0.14340894 -1.1521512 -0.7959682 -0.1572007 0.4553855 0.585902 -0.34009352 -0.0024665701 0.36780477 -0.20932826 -0.25450802 -0.089979164 0.06285581 -0.9733669 0.14650238 -0.41512874 0.39128026 0.025892926 0.41239327 -0.29105458 0.094947524 0.4801612 -0.016711969 0.5304674 0.30880165 -0.02391116 -0.15947533 -0.072759725 0.26686466 0.36576918 -0.015542199 0.26180404 -0.3047121 -0.5996561 0.12724839 -0.017803943 0.4841007 -0.33329746 -0.32523626 -0.22719829 0.101502515 0.15269214 -0.014702317 0.008879064 0.036623925 -0.2248351 0.7377253 -0.88700414 0.8183209 -0.48032326 -1.1042374 1.5785182 0.22099467 -1.3406699 -0.019528972 -0.13918422 -0.26193142 -0.06443684 0.307666 -0.32249978 0.13718915
AGD -0.08783101 0.21094282 -0.9677678 0.13534582 0.15934975 -0.8148292 1.3503461 0.6482251 0.13463223 -0.05490247 0.35657048 -0.10681844 -0.0014547552 0.22420242 0.3034291 -0.095084056 0.4911212 0.42211536 -0.092760175 -0.0056456523 -0.12742908 0.40914947 -0.10492845 0.06883444 -0.08587002 -0.12104517 -0.29730764 0.5219188 0.6394826 -0.3814076 0.05366293 0.26435396 -0.16047281 -0.6478626 -0.8129381 -0.2963302 -0.15871063 -0.829917 -0.05522237 0.36052147 -1.2768422 -0.6798997 -0.68483764 0.3554218 0.43124592 0.05549304 0.30632922 0.62811977 0.025807945 0.33155227 0.0040075467 -0.15801515 0.2663693 0.2890334 -0.15342173 0.3038355 0.24330914 0.43695453 0.11071865 0.324587 0.28111455 0.1030393 0.019822184 0.46179217 -0.18576491 -0.30529758 -0.73454165 1.0644679 0.7950979 -1.0747871 0.6276622 -0.9053846 0.20764224 -0.41760206 -0.32200408 -0.74268615 -0.41354623 -0.5556517 -0.0030015344 -0.093285605 -0.04991907 -0.5755412 -0.7098913 -0.18180557 0.083138674 0.22864623 -0.6669002 0.5342048 -0.6908445 -0.7360145 0.823167 0.23087615 -0.5989148 -0.31674603 0.2533088 -0.0008077735 -0.234061 0.3458597 -0.10492941 0.17090124
QKW -0.48895422 0.89090043 -0.4453447 -0.12322936 0.31682417 -1.1394117 0.8320503 0.7998478 -0.4839296 0.022632591 0.5352508 -0.15497798 0.13652064 0.11484617 0.6295131 0.25608954 0.2661249 0.31182072 0.19695657 0.3540263 0.094717674 -0.5312978 -0.2512389 0.387639 -0.27766868 0.39075962 0.19708467 -0.05220186 0.9487573 -0.27093324 -0.2036471 -0.15879224 0.06699621 0.102455564 -0.5825676 -0.01735566 0.31675968 -0.19584785 0.09847368 0.54203093 -0.64644253 -0.16015534 -0.6452445 0.5674874 -0.17043053 -0.27331412 -0.5374003 0.9945066 0.4626099 0.6306334 0.013630373 -0.32048565 0.051113684 0.06442957 0.170595 -0.10693326 0.00995392 0.29444057 0.045293886 0.27858344 0.6332622 -0.48158816 0.26729888 0.24196248 -0.4618936 -0.45282745 -0.2862336 1.400913 0.60344034 -0.119249634 0.18635845 -0.74524397 -0.10705203 -0.10949308 -0.21237068 -0.48995858 -0.23379403 -0.8044753 0.3779306 0.05221061 0.07041979 -0.48134893 -0.65698344 0.21625432 0.2919928 -0.1399871 -0.11965866 1.0882457 -0.69702893 -0.79105985 0.393137 -0.16329472 -0.87987036 0.2831616 -0.34040165 0.11031729 0.07925658 0.2025968 0.45806143 0.13662413
YTC 0.08494926 -0.056483466 -0.8683601 -0.2692672 -0.21144202 -0.4157966 0.9167445 0.5039699 -0.20517188 0.26930428 0.053435482 0.114414826 0.5130699 0.1263555 0.46377414 0.02221536 0.23627795 0.35804188 -0.121442854 -0.11226508 0.4308893 -0.43303055 0.059673976 0.68722874 -0.364956 0.6461975 0.22280668 -0.0451206 -0.03765441 -0.29448414 0.015860802 0.01770735 -0.08435979 0.092367485 0.05128432 0.33457983 0.07789971 -0.57768965 -0.15775912 0.17810796 -0.70862633 0.25428712 -0.25394386 0.35815677 0.04557476 -0.48262244 0.017313931 1.436063 0.108348586 -0.058122326 0.29190886 0.12407308 -0.3738712 0.46125135 0.39372078 0.032834202 0.13049275 0.6466343 0.15032251 0.6528103 0.2813508 0.10300826 0.2377971 -0.05628773 -0.16050543 0.11401785 0.00914256 1.2170244 0.029535893 -0.43838742 0.2161062 -0.9521597 -0.15709083 0.36172926 -0.6165937 -0.43427452 -0.48738834 -0.6898812 -0.051619332 -0.2617669 -0.31224293 -0.4492233 0.097412154 -0.15769322 -0.21026357 -0.1264066 -0.26141557 0.55851156 -0.3066088 -0.75852454 0.9041572 0.41799963 -0.9017892 -0.4442229 0.34100345 0.22883028 -0.88365495 -0.059901096 -0.05962169 0.69175243
HEG -0.027637543 0.53486955 -0.6087334 -0.06630402 -0.45134607 -0.73761195 0.75982505 0.30873543 -0.11153374 -0.21175179 -0.12434189 0.17693985 -0.041528188 -0.5082817 0.13738412 -0.054268595 -0.13729386 0.5277879 -0.30009082 -0.1737032 -0.026350802 -0.2678647 0.2306441 0.12679148 -0.7249461 0.58950764 0.12533858 0.06814651 0.26689032 -0.8129975 -0.06491331 0.26981908 -0.74671686 0.03171424 -0.43875197 0.08205007 -0.35797763 -0.45227593 -0.09357309 0.45566285 -0.49631754 0.061638676 -0.3754414 0.2530023 0.09515191 -0.38079378 -0.009088753 0.69984233 -0.081834204 0.65686077 0.5786204 0.44720954 -0.43096927 0.7072417 0.09010271 0.28159094 -0.005894278 0.50560576 -0.31569472 0.106312424 0.14986141 0.07509878 -0.37257048 0.74287766 -0.5493155 0.1792813 0.19702242 1.2344418 0.038431786 -0.31561145 0.8294177 -0.62083364 -0.6086559 -0.627872 -0.13610376 0.3748866 -0.29698372 -0.2314762 0.2147755 -0.4237138 0.008258809 -0.35541937 -0.6260429 -0.38841605 0.13027948 0.27847853 0.4982938 0.9178614 -0.8465552 -0.30493218 1.0053142 -0.023860348 -0.59113175 -0.47704774 -0.021461569 0.54265434 -0.4650989 0.012780623 0.19167972 0.2369807
TRP -0.24481146 0.7026509 -0.8257358 -0.38289928 -0.40130463 -0.3620124 0.75371313 0.49133897 -0.2204429 -0.055609494 0.06339846 0.26763326 0.80490816 -0.28483096 0.5235931 -0.22049555 -0.04626888 0.25472334 0.13631298 0.38168725 -0.6648074 -0.22354916 0.08355196 0.11726943 -0.16680327 0.3187875 -0.05443128 -0.0739022 0.2617561 -0.557831 -0.7297533 0.18801114 -0.09796754 -0.2921783 -0.36847028 -0.25346532 -0.09746618 -0.093795456 -0.27614352 -0.08073953 -0.75680846 -0.49102065 -0.81314236 -0.058576517 0.5641233 0.33975697 0.31881148 0.82748514 0.18685928 0.7524523 -0.20799528 0.2279559 0.2785855 0.2994749 -0.2536161 0.012624585 0.37354624 0.4958924 -0.42274198 -0.07813178 0.34323215 -0.85880303 0.09676432 0.525699 0.32268956 -0.048017014 -0.86957 1.166085 0.41294563 -0.67784005 0.7512781 -1.364263 -0.2642189 0.107954256 -0.585662 -0.40243837 -0.64901483 -0.12710848 0.012509759 0.20306168 0.19191356 -0.99633527 -0.16167945 0.21226723 0.0048368494 -0.030329954 -0.29567736 0.45008817 -0.66222364 -1.2396953 0.6425898 -0.24091752 -0.8577165 0.109990664 -0.28065324 -0.07517453 -0.35804963 0.31837538 0.31457698 0.43280733
GED -0.37735122 0.65197545 -0.4630499 0.04840059 0.51617277 -1.1514379 0.52777183 0.43415076 0.06878866 -0.24308859 -0.10317317 0.7305571 -0.084614694 -0.2539952 0.49399355 -0.4067761 0.2524478 0.8504347 0.16582517 -0.16353266 -0.100213155 -0.105967656 -0.06551679 0.39655218 -0.37032866 0.19740418 0.4224191 -0.032111984 -0.23202166 -0.8036343 -0.6600037 0.40924594 0.20476279 0.14940138 -0.4120404 -0.2637148 0.54493463 -0.16480157 -0.21005183 0.046135228 -0.51439077 -1.2607808 0.052478515 0.39554033 0.70889723 -0.25153846 0.40120566 0.58626 -0.3968821 0.38329133 0.20042096 -0.32768676 -0.75467604 -0.09904506 -0.26514804 -0.3607322 -0.050669994 0.13614853 -0.13962409 0.3516704 0.5220556 -0.48264754 -0.09410617 0.7904067 -0.07657371 0.13559863 -0.16328388 0.7432732 0.12752852 -0.6162057 0.55857253 -0.83937997 -0.5296214 -0.59507287 -0.2807729 -0.38626176 -0.14023124 -0.7644649 0.28942373 0.9830823 -0.6660629 -0.46239698 -0.21924542 0.28053853 0.110133186 0.54089934 -0.98877233 0.38669756 -0.024941176 -1.1502199 0.92724276 0.3226802 -0.8278235 -0.076931715 0.64881325 -0.71189725 -0.09680929 0.5734377 0.057548385 -0.56686276
DHE -0.23435351 0.17653638 0.17497732 -1.1277676 0.3093688 0.2938796 1.0727569 -0.30217078 0.57318157 -1.3113339 -0.13459355 0.059915695 0.29621932 0.51005524 -0.31592712 0.011921872 0.28988054 0.2870497 -0.16528402 0.11401247 -0.23772027 0.15584067 0.3109813 -1.0122658 -0.4978013 0.25362495 -0.86747855 -0.178681 0.39493746 -0.7966999 -0.23464896 0.45504788 0.19108666 0.62315977 -0.14463668 -0.3715138 -0.6375474 -0.036708623 -0.5458405 0.18355413 -1.0663115 -0.97957134 0.3941427 -0.08224867 0.4592979 -1.126347 0.047974285 0.70464057 0.05720085 -0.18451957 0.34559873 -0.6390631 -0.7054578 0.5204351 -0.27835324 0.39122355 -0.8536054 -0.8671861 0.3428216 -0.22279353 0.40370432 -0.34793466 0.25979918 0.13671567 -0.04445242 0.46675414 0.90285736 0.05578657 0.8101097 -0.8964886 -1.1907839 -0.7023149 -0.9642385 -0.17739494 -0.54540867 0.642447 -0.2493989 0.26004535 0.030525992 -0.2722564 0.4853341 0.026779534 -0.3021427 -0.12020286 0.43816417 -0.7913055 0.42714754 0.90369153 0.7170329 0.30958325 0.42283338 0.24104515 -0.8133321 0.049569696 0.47138 0.2986169 0.546765 -0.21764003 -0.033596125 -1.3817781
FYP -0.0031384458 0.6472484 0.39105815 -0.6209418 0.45251963 0.3002543 1.1620319 -0.522601 -0.21884875 -0.8697264 -0.5329066 0.01813733 0.74955475 -0.20706366 0.47688103 -0.45556408 0.36940244 0.3879388 -0.61655307 0.14208312 0.06976648 -0.41674513 0.07469575 -0.41961405 -0.22504278 0.1194991 -0.30211973 0.4650731 0.4853488 -0.33556542 -0.20281957 1.0382782 0.51578563 0.5271213 0.53987217 -0.0013126626 -0.04967517 -0.60677296 -0.34756997 0.45036373 -1.0901468 -0.64189994 0.58379024 0.98019797 0.10218124 0.3176657 -0.8248075 0.7675979 -0.47115687 -0.14625105 0.21297967 -0.29921958 -0.7627167 0.0031202636 -0.35079753 0.11508613 -0.71973443 -0.47414452 -0.53557783 -0.50378734 0.25206414 0.3707584 -0.16389455 -0.06690553 0.40018556 -0.07741864 1.3075225 0.35045373 -0.4659123 -0.42343566 0.04974879 0.08095292 0.04157615 -0.23314661 -0.19852664 -0.08220914 0.0049626967 -0.518916 0.17191768 0.26226738 -0.14977008 0.068516105 -0.19677098 -0.27635887 0.9537985 -0.010816819 0.058299918 0.12010047 -0.5026432 0.005521047 0.60758483 0.22157365 -0.62483734 0.010764566 0.29845235 0.4153206 0.3590552 -0.7779215 -0.7781426 -0.6814262
EIT -0.48300666 0.9372915 -0.3030183 -0.25265464 0.1699359 -0.21626718 0.23677108 0.56385684 0.03150732 0.32063916 0.23910284 0.443745 0.35097972 -0.3390113 0.36540413 -0.3539379 0.46163034 0.3273296 -0.35011068 0.2725657 -0.97304404 -0.09802877 0.34609327 -0.30993626 -0.21324569 -0.5363339 0.7907895 0.0031811933 -0.14552125 -1.1115663 -0.65401864 0.2524921 0.16332157 -0.27962017 0.0049542445 0.50793624 -0.06747833 -0.5318927 0.27478552 0.22434282 -0.62270814 -0.5925324 -0.5114485 0.68676615 0.53637826 0.5914922 0.17021179 0.7292417 -0.20288861 -0.39330998 -0.27416864 0.22752467 -1.0257324 0.09594589 0.10559381 0.4735517 0.104690395 0.28185663 -0.100202166 0.4605967 0.5071081 -0.08208209 0.3345523 0.28139073 -0.27067605 0.18389352 -0.6929091 0.55289537 0.34445167 -0.11076157 -0.10659481 -0.79831415 -0.6729376 -0.30250883 -0.17111936 -0.42182508 0.041036062 -0.9559957 0.38516253 0.0698542 -0.2679758 -0.3882237 -0.3430233 0.0046067717 0.23805954 0.19408116 -0.5454568 0.8553273 -0.60096073 -0.47567537 1.454804 0.07961597 -0.97622216 -0.015404731 0.2805832 0.039763216 -0.19440965 0.579854 -0.10396216 -0.5597376
TCH -0.5972196 0.16418104 -0.09991474 0.21782875 -0.13818502 0.21215163 0.99248475 -0.108819894 0.09716216 -0.299546 -0.0860312 -0.12543908 -0.3769801 -0.28697053 0.5698497 -0.043046262 0.3534721 0.04964901 0.36903942 -0.09391785 -0.21012728 0.09082633 -0.51643217 -0.87093556 0.057418898 0.57170874 0.9829332 0.4762804 0.17071426 -1.0783259 -0.00011052382 -0.2716049 -0.112237014 -0.20211276 -0.44518572 -0.67818713 0.33129776 0.33355853 0.18823504 0.59925276 -0.5341415 -0.39971215 -1.0756893 0.80250764 -0.46872407 -0.0007486714 -0.08874595 0.43642274 0.482076 0.058992922 0.29159653 -0.16193092 0.44183865 0.69235784 0.17305323 0.18897541 -0.8225506 -0.093828335 0.4603242 -0.13448489 -0.2784542 0.26557362 -0.20192304 -0.45606366 0.70795155 -0.34949133 -0.14327936 0.88286734 -0.44742596 0.21607958 0.52153605 0.27012667 -0.7175121 0.36084798 0.2992195 0.41765133 0.55923504 0.65260017 -0.308197 -0.34015375 -0.14547731 -0.69174045 -0.8494114 -0.039533332 -0.41977963 -0.5326071 -0.36219642 0.15854436 0.45836365 0.0046320823 0.71644515 -0.2382895 -0.5470959 0.19373645 0.559947 0.2619462 -0.15675886 -0.53611857 0.14853384 0.19644588
VPS -0.54675204 -0.22764097 0.43774548 -0.040632237 -0.10509817 0.32542798 1.1419584 0.18446805 0.34002364 -0.38808948 0.051735424 0.13478178 0.118564844 -0.013701744 0.6824845 -0.19024429 0.66172737 0.28654966 -0.18577264 -1.1363657 -0.37240237 0.18590091 -0.2685846 -0.5745289 -0.12995519 0.59742 1.1860906 -0.22547518 0.040617846 -0.0995493 0.5540042 0.04176721 -0.47838593 -0.10699647 -0.4993412 -0.21974413 0.17586806 -0.058588244 -0.4186771 0.16250211 -0.33161306 -0.07775615 -0.7954213 0.61240965 -0.23030582 -0.19009617 -0.63552547 0.5335524 -0.07389285 -0.066788696 0.15619831 -0.21434018 0.44534144 0.13597794 -0.28753877 -0.036273267 -0.7216664 -1.0898538 0.8251266 -0.25243038 -0.53127885 -0.17357454 -0.1598446 -0.15831494 1.3582464 -0.274198 -0.2564603 0.7420563 -0.23363763 0.087880865 0.24796604 -0.2232223 -0.6078266 -0.45460135 -0.030463926 0.06944842 0.620107 0.16670415 0.07568115 0.3278848 -0.66864324 -0.04939233 -0.9763056 -0.3171625 -0.22399096 -0.74034154 0.018011952 0.28653678 0.38456488 -0.26449138 -0.12196976 -0.4681992 -0.5458556 0.20422281 0.1527946 0.11400689 -0.07893778 0.25356996 0.2133985 0.5099044
RPA -0.3131823 -0.14209653 0.30799854 -0.041182067 -0.25443217 0.3596887 0.8632598 -0.5069762 0.13803999 -0.5576292 0.71527654 0.3786422 0.28489238 -0.1455279 0.9257185 -0.3960048 0.09152741 0.18989502 -0.4509692 -0.06931721 -0.9018129 0.25563025 -0.09920703 -1.0282845 0.5458456 0.53082 1.1133965 0.05772058 0.4083424 -0.41274512 0.28190255 -0.48350665 0.11672451 -0.2013247 -0.35677895 -0.5071346 -0.34497195 -0.72551304 -0.043581016 -0.05491942 -0.690545 -0.38099065 -0.6653406 0.3146645 -0.16908209 0.48392692 -0.5513322 0.31807604 0.2664656 0.60308516 -0.16022749 -0.006974947 0.42156273 0.1554024 -0.08954603 -0.19582981 -0.08822689 -0.19428696 -0.027989645 -0.3226795 0.679668 -0.3786997 -0.743571 -0.3463445 0.42418104 -0.38376537 -0.8786983 1.2952881 -0.49098966 -0.4679981 0.23988692 -0.033704232 0.05254711 -0.20110364 0.20845753 0.08216237 0.045455452 0.28641614 -0.80943143 0.38658854 0.008816271 -0.34128764 -0.60648495 -0.13490482 -0.2674479 -0.4880551 -0.25347212 -0.012918838 0.5445622 -0.56741446 -0.04309446 -0.40834957 -0.9849404 0.0014619591 -0.08691342 -0.40947062 0.15362485 -0.14377914 0.1254785 0.6482759
LTW -0.49197537 0.6553482 -0.47953913 -0.54930204 0.27877367 -0.5638133 0.18959332 0.50704235 -0.3162301 -0.40475264 0.004024 0.34935528 0.25766087 -0.09147607 0.39114767 -0.24042545 0.4966948 0.2494019 0.26856595 0.5536226 -0.45875028 0.061663218 0.18390444 -0.3511375 -0.5437978 -0.8606627 0.6836099 0.33462015 -1.062771 -0.51828605 -0.43227834 0.59425104 -0.19505882 -0.55874103 -0.26663464 0.025441177 0.70513666 -0.9214423 0.0013734706 0.3968398 -0.8497059 -0.42350197 -0.3783016 0.6142907 0.38921428 0.5389861 -0.29209724 1.1950717 0.31764543 0.10190601 0.78327066 -0.07371957 -0.12396919 -0.11637377 -0.11272479 0.28044227 -0.115047365 0.659401 -0.12600179 0.09074111 0.36633247 -0.5348169 0.5580297 0.7836669 0.5404437 0.37438822 0.025035102 0.5736336 0.5797116 -0.13076633 0.57200503 -1.2918712 -0.60646534 -0.644495 0.16226141 0.04449782 -0.2114886 -0.25330615 -0.015341608 0.4486803 -0.10959442 0.1511315 -0.07122735 0.4449498 0.67745405 0.9129363 -0.85366106 0.8497176 -0.5592788 -0.7839052 1.2087965 0.3760935 -0.7506974 0.31429413 0.6527643 0.012027314 -0.16882394 0.73182815 -0.2674958 -0.3331132
VET 0.024702067 -0.7096373 0.0715691 0.14360206 -0.5174097 0.3372906 0.59417903 -0.29257703 -0.22232105 -0.49828455 -0.28327498 0.08758716 0.19180866 -0.14465338 0.76702213 0.042058032 0.17241384 0.0729464 0.46254095 -0.40504155 -0.5111547 0.20426455 -0.38723472 -0.7241288 0.5023576 0.66167235 0.95989543 0.39214447 0.5733379 -0.5961845 0.064068586 -0.1655034 -0.009785014 -0.8021756 -0.34155223 -0.14574254 -0.32207847 -0.84316546 -0.21454106 0.34008506 -0.82864165 0.06096438 -0.5224769 0.3690292 -0.25111508 -0.32196268 -0.3698486 0.42991313 0.18852916 0.6414336 0.36415026 -0.8945952 0.28010845 -0.39421946 -0.44715172 -0.29628208 -0.30611533 -0.40485004 0.7491173 -0.14659575 0.25277987 0.3076744 -0.4585448 -0.6697911 0.6887274 -0.70001066 -0.92524266 1.0301559 -0.101864405 -0.5677598 0.12651648 -0.022417312 -0.376718 0.085080326 -0.07368718 0.12718117 0.47475347 -0.04206072 -0.07373832 0.19513084 -0.6195088 -0.16392028 -0.67881715 0.32275182 0.6215929 -0.46132615 -0.5515632 -0.15302579 0.25739938 -0.7174838 0.18666954 0.35320178 -1.1862818 0.07066061 -0.11576124 -0.19424222 -0.19401586 -0.23935673 0.118126124 -0.19689205
QTQ -0.26339087 1.1290464 -0.44601247 0.17216365 0.04418896 -0.898808 0.12984048 0.61544406 0.020907959 -0.6679873 0.028789649 0.39199516 0.3835025 0.10350204 1.1092545 -0.0020739064 0.6038367 0.37479937 -0.21912284 0.11872838 -0.62673575 0.24517623 -0.14956893 -0.052576046 -0.42383832 -0.32251483 -0.033766165 -0.2366602 0.24271052 -0.6772841 -0.2884752 0.07027021 0.07279179 -0.14870575 -0.08962811 0.10064569 0.101505086 -0.11688427 -0.23978435 0.084888935 -0.76718676 -0.31442577 -0.32372305 0.16144335 0.34314176 -0.14512849 -0.13011739 0.37604937 0.15218674 0.19302592 -0.25528607 -0.36692178 -0.5032569 0.55781287 -0.07233815 0.20249914 -0.016527763 0.7273903 -0.03567486 -0.7984194 0.19022967 -0.20945747 0.43142614 0.79736215 -0.092885405 0.22858515 -0.112622954 1.4011903 0.2531339 -0.7826101 0.33447164 -0.6654241 0.6154159 -0.533014 -0.6683035 -0.43890515 0.40502286 -0.86225075 -0.17630064 0.3019163 0.0946307 -0.45299575 -0.13693923 0.5427478 -0.15030399 0.46395126 -1.0768415 0.7545118 -0.50511944 -1.0642982 1.2247882 0.5726841 -0.51680785 -0.19527245 0.0014774294 0.055834703 -0.32685935 0.34658492 0.028809927 0.14716752
TEL 0.47459528 0.82912195 -0.121165015 0.14222778 0.0063546747 0.69129705 0.20891175 -0.58422047 0.26661998 -0.58021516 0.62070155 0.7588576 0.36561963 -0.65945876 1.0835085 0.6697812 0.13077062 0.22050291 0.06605941 -0.10742408 -1.151025 0.19337955 -0.662182 -0.44092983 -0.038896956 0.5999111 0.56531656 0.4824636 -0.24314435 -0.31798702 0.417006 -0.07680042 -0.5283226 -0.21063355 -0.3671176 0.3474187 -0.48288205 -0.7449326 -0.8714556 0.2321791 -1.0895346 -0.15890642 -0.2446179 -0.020366337 -0.6433655 0.5815007 -0.22708715 -0.2724787 0.12213397 -0.36775446 0.010468963 -0.22485252 0.015999705 0.3615533 -0.844662 0.14857544 -0.37026513 -1.1620544 -0.27293056 0.273089 -0.50150025 0.47822088 -0.6247606 -0.225796 0.48004684 0.003729113 -1.0581001 0.9648927 -0.056209102 -0.54834294 0.49400783 -0.35034034 -0.48256952 -0.00488154 -0.07695816 0.38960132 0.078054145 0.6396197 -0.030112607 0.41908684 -0.37508 -0.11061008 -0.6219103 0.8848452 0.057216413 -0.3814898 -0.854971 0.47371042 0.57181275 -1.0043243 0.40078917 0.32567352 -0.7596169 0.31332695 0.34632006 -0.082946904 -0.24414042 0.1079159 1.1023391 0.31569272
TQD 0.032706022 -0.012727902 -0.26232606 0.25410727 -0.47992817 0.3118631 0.7228934 -0.116041034 -0.09305757 -0.5553071 0.09616009 1.0555007 0.45553145 0.24269846 1.3716033 -0.35034463 -0.1433696 0.46781957 0.2686974 -0.42661837 -0.42703065 0.17577249 -0.5057069 -0.5999875 0.057241898 -0.09971435 0.8812263 0.80748296 0.3039529 -0.14400785 0.4263012 -0.4644178 0.45319468 -0.10300978 0.2742122 -0.091003776 -0.43102443 -0.27565134 -0.29236385 -0.24176453 -1.0596688 -0.03226761 -0.5277258 0.44522572 -0.82471555 0.14515308 -0.006437176 0.29093355 0.10616225 0.14914724 -0.108036995 -0.52634084 0.20278567 0.1802869 -0.43997562 0.3684826 0.1436378 -0.23596905 0.40443334 -0.1715603 -0.16733082 -0.0026283092 -0.33340213 -0.27697495 1.0702382 0.18234685 -0.78541476 0.89785594 -0.5568054 -0.22356038 0.39872086 0.045762036 -0.011866941 0.23530447 -0.21162452 0.046988666 0.89756775 -0.34427065 -0.51258945 0.43507934 -0.37487897 -0.44107133 -0.18697934 0.14260015 -0.54510266 -0.60826516 -0.80224663 0.05758955 0.3152575 -0.74813706 0.68629664 0.05196011 -0.70852375 0.29196143 0.27074406 0.40745315 -0.100011855 0.2756315 0.5501313 0.28657934
